{"learner":{"attributes":{"scikit_learn":"{\"_estimator_type\": \"classifier\"}"},"feature_names":[],"feature_types":[],"gradient_booster":{"model":{"cats":{"enc":[],"feature_segments":[],"sorted_idx":[]},"gbtree_model_param":{"num_parallel_tree":"1","num_trees":"150"},"iteration_indptr":[0,1,2,3,4,5,6,7,8,9,10,11,12,13,14,15,16,17,18,19,20,21,22,23,24,25,26,27,28,29,30,31,32,33,34,35,36,37,38,39,40,41,42,43,44,45,46,47,48,49,50,51,52,53,54,55,56,57,58,59,60,61,62,63,64,65,66,67,68,69,70,71,72,73,74,75,76,77,78,79,80,81,82,83,84,85,86,87,88,89,90,91,92,93,94,95,96,97,98,99,100,101,102,103,104,105,106,107,108,109,110,111,112,113,114,115,116,117,118,119,120,121,122,123,124,125,126,127,128,129,130,131,132,133,134,135,136,137,138,139,140,141,142,143,144,145,146,147,148,149,150],"tree_info":[0,0,0,0,0,0,0,0,0,0,0,0,0,0,0,0,0,0,0,0,0,0,0,0,0,0,0,0,0,0,0,0,0,0,0,0,0,0,0,0,0,0,0,0,0,0,0,0,0,0,0,0,0,0,0,0,0,0,0,0,0,0,0,0,0,0,0,0,0,0,0,0,0,0,0,0,0,0,0,0,0,0,0,0,0,0,0,0,0,0,0,0,0,0,0,0,0,0,0,0,0,0,0,0,0,0,0,0,0,0,0,0,0,0,0,0,0,0,0,0,0,0,0,0,0,0,0,0,0,0,0,0,0,0,0,0,0,0,0,0,0,0,0,0,0,0,0,0,0,0],"trees":[{"base_weights":[-8.0394946E-2,2.2495176E-1,-1.9909503E-1,3.4898266E-1,-1.0147059E0,2.9673897E-2,5.7522404E-1,-1.6455011E0,-3.7658498E-1,1.0936689E-1,-1.9036144E-1,8.477364E-1,2.0730293E-1,-1.9624414E-1,6.2992156E-2,6.9985735E-1,-1.9245283E-1,-1.23761006E-1,6.872815E-1,9.0093035E-1,-1.7714286E-1,8.706143E-1,-2.0787042E-1,1.6716717E-1,-1.6521738E-1,-1.7142858E-1,1.198948E0,-1.207688E-1,6.7477487E-3,8.707471E-2,-1.804878E-1,1.1003721E-2,1.0046061E-1,-6.313433E-2,1.09402694E-1,-4.7998797E-2,1.1266985E-1,-1.4666668E-1,1.4950739E-1],"categories":[],"categories_nodes":[],"categories_segments":[],"categories_sizes":[],"default_left":[0,0,0,0,0,0,0,0,0,0,0,0,0,0,0,0,0,0,0,0,0,0,0,0,0,0,0,0,0,0,0,0,0,0,0,0,0,0,0],"id":0,"left_children":[1,3,-1,5,7,9,11,13,15,17,-1,19,21,-1,23,25,-1,27,29,31,-1,33,35,-1,-1,-1,37,-1,-1,-1,-1,-1,-1,-1,-1,-1,-1,-1,-1],"loss_changes":[9.356444E2,2.1300784E2,0E0,9.086282E1,5.0117935E1,8.0748985E1,7.364354E1,3.4287033E1,1.0791716E2,6.785408E1,0E0,6.048056E1,8.6821106E1,0E0,3.2675144E1,4.8391647E1,0E0,7.4553696E1,6.774942E1,3.3909546E1,0E0,4.1395332E1,7.110448E1,0E0,0E0,0E0,2.781321E1,0E0,0E0,0E0,0E0,0E0,0E0,0E0,0E0,0E0,0E0,0E0,0E0],"parents":[2147483647,0,0,1,1,3,3,4,4,5,5,6,6,7,7,8,8,9,9,11,11,12,12,14,14,15,15,17,17,18,18,19,19,21,21,22,22,26,26],"right_children":[2,4,-1,6,8,10,12,14,16,18,-1,20,22,-1,24,26,-1,28,30,32,-1,34,36,-1,-1,-1,38,-1,-1,-1,-1,-1,-1,-1,-1,-1,-1,-1,-1],"split_conditions":[1.7215693E0,2.0466397E0,-1.9909503E-1,-4.4843683E-1,4.4939202E-1,1.2879599E0,1.1466401E-1,1.409009E0,1.0838716E0,1.4069456E0,-1.9036144E-1,1.615626E0,-5.835084E-1,-1.9624414E-1,-1.3005902E0,-1.1496506E-2,-1.9245283E-1,-7.548827E-1,2.236068E0,-8.823851E-1,-1.7714286E-1,-7.6246744E-1,2.7575443E0,1.6716717E-1,-1.6521738E-1,-1.7142858E-1,-5.718793E-1,-1.207688E-1,6.7477487E-3,8.707471E-2,-1.804878E-1,1.1003721E-2,1.0046061E-1,-6.313433E-2,1.09402694E-1,-4.7998797E-2,1.1266985E-1,-1.4666668E-1,1.4950739E-1],"split_indices":[14,2,0,6,5,9,7,10,5,16,0,5,10,0,11,16,0,4,24,4,0,3,8,0,0,0,9,0,0,0,0,0,0,0,0,0,0,0,0],"split_type":[0,0,0,0,0,0,0,0,0,0,0,0,0,0,0,0,0,0,0,0,0,0,0,0,0,0,0,0,0,0,0,0,0,0,0,0,0,0,0],"sum_hessian":[1.602061E3,1.382061E3,2.2E2,1.2570122E3,1.2504878E2,5.217561E2,7.352561E2,6.2091465E1,6.2957317E1,5.020061E2,1.975E1,4.2164636E2,3.1360977E2,5.225E1,9.841463E0,3.7457317E1,2.55E1,3.582683E2,1.4373781E2,4.1389636E2,7.75E0,1.2030488E2,1.9330489E2,5.0914636E0,4.75E0,6E0,3.1457317E1,5.2932926E1,3.0533536E2,1.3448781E2,9.25E0,4.8207317E1,3.6568903E2,1.5341463E1,1.0496342E2,1.6109756E2,3.2207317E1,2.75E0,2.8707317E1],"tree_param":{"num_deleted":"0","num_feature":"25","num_nodes":"39","size_leaf_vector":"1"}},{"base_weights":[4.0236406E-2,-1.9368206E-1,1.5926077E0,1.6451572E0,8.537869E-1,1.684005E0,9.5404947E-1,-5.654744E-1,1.3025576E0,1.6938815E0,5.3978133E-1,1.2443664E0,-1.577997E-1,-1.659903E-1,1.2994961E-1,1.450371E0,-1.2593682E-1,1.6221565E0,1.8651773E-1,-1.4312577E-1,1.5842745E-1,1.4368907E0,-1.4313194E-1,-1.2565592E-1,1.6125865E0,-1.3457657E-1,1.637061E-1,1.5629573E-1,-1.18546925E-1,1.7358531E-1,8.029214E-2],"categories":[],"categories_nodes":[],"categories_segments":[],"categories_sizes":[],"default_left":[0,0,0,0,0,0,0,0,0,0,0,0,0,0,0,0,0,0,0,0,0,0,0,0,0,0,0,0,0,0,0],"id":1,"left_children":[1,-1,3,5,7,9,11,13,15,17,19,21,-1,-1,-1,23,-1,25,-1,-1,-1,27,-1,-1,29,-1,-1,-1,-1,-1,-1],"loss_changes":[5.158913E3,0E0,3.515161E1,2.1965088E1,4.188298E1,8.464844E0,3.8006718E1,3.525731E1,2.0527939E1,7.078125E0,1.9910976E1,2.500454E1,0E0,0E0,0E0,2.2732643E1,0E0,2.818335E1,0E0,0E0,0E0,1.5756294E1,0E0,0E0,3.0902328E0,0E0,0E0,0E0,0E0,0E0,0E0],"parents":[2147483647,0,0,2,2,3,3,4,4,5,5,6,6,7,7,8,8,9,9,10,10,11,11,15,15,17,17,21,21,24,24],"right_children":[2,-1,4,6,8,10,12,14,16,18,20,22,-1,-1,-1,24,-1,26,-1,-1,-1,28,-1,-1,30,-1,-1,-1,-1,-1,-1],"split_conditions":[1.5174211E0,-1.9368206E-1,2.0466397E0,1.470602E0,-2.7566734E-1,2.8498924E0,6.977245E-1,6.333916E0,1.3397995E0,3.4274106E0,3.3701098E0,1.0497571E-1,-1.577997E-1,-1.659903E-1,1.2994961E-1,-4.0880474E-1,-1.2593682E-1,-8.6417043E-1,1.8651773E-1,-1.4312577E-1,1.5842745E-1,1.9217659E0,-1.4313194E-1,-1.2565592E-1,8.2224363E-1,-1.3457657E-1,1.637061E-1,1.5629573E-1,-1.18546925E-1,1.7358531E-1,8.029214E-2],"split_indices":[17,0,2,5,8,7,16,17,4,17,6,6,0,0,0,4,0,4,0,0,0,3,0,0,8,0,0,0,0,0,0],"split_type":[0,0,0,0,0,0,0,0,0,0,0,0,0,0,0,0,0,0,0,0,0,0,0,0,0,0,0,0,0,0,0],"sum_hessian":[1.6789008E3,7.383329E2,9.4056793E2,8.76966E2,6.3601887E1,8.289342E2,4.8031837E1,1.5217062E1,4.8384823E1,8.2136414E2,7.570047E0,4.354738E1,4.484461E0,9.658867E0,5.558195E0,4.615569E1,2.2291336E0,5.8632715E2,2.3503699E2,2.4937878E0,5.076259E0,4.1056232E1,2.4911468E0,2.2281277E0,4.3927563E1,2.4835424E0,5.838436E2,3.9558495E1,1.4977345E0,3.713072E1,6.796844E0],"tree_param":{"num_deleted":"0","num_feature":"25","num_nodes":"31","size_leaf_vector":"1"}},{"base_weights":[6.386075E-2,-1.771787E-1,1.4571741E0,1.51101E0,6.2383145E-1,1.5461581E0,7.9060555E-1,9.9173105E-1,-1.5548828E-1,-1.0763017E-1,1.5512009E0,-1.9050667E-1,1.7771976E-1,-3.932764E-1,1.4640414E0,1.5797467E0,1.1095219E0,1.0565199E0,-1.7290613E-1,-1.5355231E-1,1.1855753E-1,-1.01534426E-1,1.5721681E0,-1.1982675E-1,1.5855454E-1,1.2942067E-1,-1.6027643E-1,1.4995188E-1,-1.20688215E-1,7.1346186E-2,1.7340776E-1],"categories":[],"categories_nodes":[],"categories_segments":[],"categories_sizes":[],"default_left":[0,0,0,0,0,0,0,0,0,0,0,0,0,0,0,0,0,0,0,0,0,0,0,0,0,0,0,0,0,0,0],"id":2,"left_children":[1,-1,3,5,7,9,11,13,-1,-1,15,17,-1,19,21,23,25,27,-1,-1,-1,-1,29,-1,-1,-1,-1,-1,-1,-1,-1],"loss_changes":[4.3168164E3,0E0,4.210376E1,2.1580322E1,4.9576538E1,1.3011475E1,4.287085E1,3.4513428E1,0E0,0E0,9.044434E0,4.582931E1,0E0,2.7034805E1,1.2024651E1,1.481958E1,2.9799126E1,1.5133494E1,0E0,0E0,0E0,0E0,3.9995956E0,0E0,0E0,0E0,0E0,0E0,0E0,0E0,0E0],"parents":[2147483647,0,0,2,2,3,3,4,4,5,5,6,6,7,7,10,10,11,11,13,13,14,14,15,15,16,16,17,17,22,22],"right_children":[2,-1,4,6,8,10,12,14,-1,-1,16,18,-1,20,22,24,26,28,-1,-1,-1,-1,30,-1,-1,-1,-1,-1,-1,-1,-1],"split_conditions":[1.5174211E0,-1.771787E-1,2.0466397E0,1.470602E0,1.0838716E0,-1.5023881E0,2.1859174E0,2.9832545E-1,-1.5548828E-1,-1.0763017E-1,2.0466397E0,-7.2071755E-1,1.7771976E-1,1.1483058E0,-1.1496506E-2,-1.6328843E0,-2.4858637E-2,-5.718793E-1,-1.7290613E-1,-1.5355231E-1,1.1855753E-1,-1.01534426E-1,2.1859174E0,-1.1982675E-1,1.5855454E-1,1.2942067E-1,-1.6027643E-1,1.4995188E-1,-1.20688215E-1,7.1346186E-2,1.7340776E-1],"split_indices":[17,0,2,5,5,5,17,5,0,0,1,16,0,10,16,11,10,9,0,0,0,0,17,0,0,0,0,0,0,0,0],"split_type":[0,0,0,0,0,0,0,0,0,0,0,0,0,0,0,0,0,0,0,0,0,0,0,0,0,0,0,0,0,0,0],"sum_hessian":[1.6858076E3,7.273175E2,9.584902E2,8.99563E2,5.892717E1,8.566228E2,4.2940235E1,5.0880287E1,8.046883E0,1.2363552E0,8.553864E2,2.1934486E1,2.1005749E1,1.2981256E1,3.7899033E1,8.010384E2,5.4348022E1,1.2288078E1,9.646407E0,7.5479836E0,5.4332724E0,1.2331079E0,3.6665924E1,1.240189E0,7.997982E2,5.1372787E1,2.9752362E0,1.0558947E1,1.729131E0,6.674337E0,2.9991589E1],"tree_param":{"num_deleted":"0","num_feature":"25","num_nodes":"31","size_leaf_vector":"1"}},{"base_weights":[-3.2891065E-2,-1.646816E-1,1.3009422E0,1.4363436E0,-1.9269943E-1,1.4587239E0,-9.377581E-2,1.467126E0,-1.3395457E-1,-1.463736E-1,1.4304273E-1,1.5081298E0,1.0213939E0,1.5516703E-1,1.345812E-1,1.2878403E-1,-3.660192E-2],"categories":[],"categories_nodes":[],"categories_segments":[],"categories_sizes":[],"default_left":[0,0,0,0,0,0,0,0,0,0,0,0,0,0,0,0,0],"id":3,"left_children":[1,-1,3,5,-1,7,9,11,-1,-1,-1,13,15,-1,-1,-1,-1],"loss_changes":[3.3750764E3,0E0,3.7795276E2,2.8369019E1,0E0,2.10708E1,2.8872145E1,1.3275391E1,0E0,0E0,0E0,3.1434326E0,2.6862083E1,0E0,0E0,0E0,0E0],"parents":[2147483647,0,0,2,2,3,3,5,5,6,6,7,7,11,11,12,12],"right_children":[2,-1,4,6,-1,8,10,12,-1,-1,-1,14,16,-1,-1,-1,-1],"split_conditions":[1.5174211E0,-1.646816E-1,1.7215693E0,1.7425219E0,-1.9269943E-1,4.491222E0,2.1859174E0,2.0466397E0,-1.3395457E-1,-1.463736E-1,1.4304273E-1,6.790132E-1,8.179945E-1,1.5516703E-1,1.345812E-1,1.2878403E-1,-3.660192E-2],"split_indices":[17,0,14,5,0,1,17,0,0,0,0,5,5,0,0,0,0],"split_type":[0,0,0,0,0,0,0,0,0,0,0,0,0,0,0,0,0],"sum_hessian":[1.565834E3,7.084192E2,8.574148E2,8.234296E2,3.3985165E1,8.1160535E2,1.1824295E1,8.0964996E2,1.9553584E0,6.248125E0,5.5761695E0,7.392603E2,7.038969E1,5.7615295E2,1.6310736E2,5.9109703E1,1.12799835E1],"tree_param":{"num_deleted":"0","num_feature":"25","num_nodes":"17","size_leaf_vector":"1"}},{"base_weights":[1.0862757E-2,-1.549258E-1,1.2302678E0,1.3485916E0,-1.7480512E-1,1.3889003E0,8.99195E-1,1.4201453E0,9.501616E-1,1.082098E0,-1.7070319E-1,1.374506E0,1.5485805E0,1.130947E0,-1.271032E-1,5.5226195E-1,1.4060345E-1,1.4240132E-1,1.2245097E-1,1.564623E-1,8.7002955E-2,-1.2604685E-1,1.3030706E-1,9.6373744E-2,-1.556388E-1],"categories":[],"categories_nodes":[],"categories_segments":[],"categories_sizes":[],"default_left":[0,0,0,0,0,0,0,0,0,0,0,0,0,0,0,0,0,0,0,0,0,0,0,0,0],"id":4,"left_children":[1,-1,3,5,-1,7,9,11,13,15,-1,17,19,21,-1,23,-1,-1,-1,-1,-1,-1,-1,-1,-1],"loss_changes":[2.9492039E3,0E0,3.0899622E2,1.3921143E1,0E0,9.1604E0,3.605807E1,2.0549316E0,2.3118107E1,1.083857E1,0E0,2.232605E0,5.8969116E-1,2.2411407E1,0E0,2.5207388E1,0E0,0E0,0E0,0E0,0E0,0E0,0E0,0E0,0E0],"parents":[2147483647,0,0,2,2,3,3,5,5,6,6,7,7,8,8,9,9,11,11,12,12,13,13,15,15],"right_children":[2,-1,4,6,-1,8,10,12,14,16,-1,18,20,22,-1,24,-1,-1,-1,-1,-1,-1,-1,-1,-1],"split_conditions":[1.5174211E0,-1.549258E-1,1.7215693E0,2.0466397E0,-1.7480512E-1,2.0466397E0,4.3645558E-1,3.4274106E0,2.236068E0,2.1859174E0,-1.7070319E-1,6.719299E-1,1.8087149E0,-3.8451856E-1,-1.271032E-1,1.054437E0,1.4060345E-1,1.4240132E-1,1.2245097E-1,1.564623E-1,8.7002955E-2,-1.2604685E-1,1.3030706E-1,9.6373744E-2,-1.556388E-1],"split_indices":[17,0,14,0,0,2,7,17,19,17,0,4,9,4,0,4,0,0,0,0,0,0,0,0,0],"split_type":[0,0,0,0,0,0,0,0,0,0,0,0,0,0,0,0,0,0,0,0,0,0,0,0,0],"sum_hessian":[1.548237E3,6.7910803E2,8.69129E2,8.364456E2,3.2683453E1,7.656775E2,7.076811E1,7.1268634E2,5.299115E1,6.66738E1,4.0943117E0,5.344664E2,1.7821996E2,4.9456657E1,3.5344925E0,2.6323494E1,4.0350304E1,3.9545154E2,1.3901485E2,1.7282811E2,5.3918366E0,2.8961196E0,4.6560535E1,2.2479813E1,3.8436816E0],"tree_param":{"num_deleted":"0","num_feature":"25","num_nodes":"25","size_leaf_vector":"1"}},{"base_weights":[-3.582632E-2,-1.4709911E-1,1.1393936E0,1.1508031E0,-1.5118055E-1,1.1854823E0,3.4298852E-1,1.2248114E0,7.4428976E-1,-1.5460525E-1,1.0300361E0,-1.1783942E-1,1.2307017E0,-1.5019621E-1,8.773435E-1,-1.238141E-1,1.3608584E0,1.2795721E-1,9.569122E-2,1.0049969E-1,-1.456765E-1,1.5334721E-1,-9.6161485E-2],"categories":[],"categories_nodes":[],"categories_segments":[],"categories_sizes":[],"default_left":[0,0,0,0,0,0,0,0,0,0,0,0,0,0,0,0,0,0,0,0,0,0,0],"id":5,"left_children":[1,-1,3,5,-1,7,9,11,13,-1,15,-1,17,-1,19,-1,21,-1,-1,-1,-1,-1,-1],"loss_changes":[2.446415E3,0E0,2.5862549E1,2.1854248E1,0E0,1.230188E1,4.5870125E1,1.1325562E1,2.0707329E1,0E0,2.0907188E1,0E0,8.093628E0,0E0,1.9901367E1,0E0,1.0628086E1,0E0,0E0,0E0,0E0,0E0,0E0],"parents":[2147483647,0,0,2,2,3,3,5,5,6,6,7,7,8,8,10,10,12,12,14,14,16,16],"right_children":[2,-1,4,6,-1,8,10,12,14,-1,16,-1,18,-1,20,-1,22,-1,-1,-1,-1,-1,-1],"split_conditions":[1.5174211E0,-1.4709911E-1,3.0319588E0,1.5189433E0,-1.5118055E-1,2.0466397E0,1.8240961E-1,-1.6328843E0,-5.904777E-1,-1.5460525E-1,-2.1107522E-1,-1.1783942E-1,8.179945E-1,-1.5019621E-1,2.0466397E0,-1.238141E-1,5.477057E-1,1.2795721E-1,9.569122E-2,1.0049969E-1,-1.456765E-1,1.5334721E-1,-9.6161485E-2],"split_indices":[17,0,7,5,0,1,7,11,9,0,10,0,5,0,0,0,6,0,0,0,0,0,0],"split_type":[0,0,0,0,0,0,0,0,0,0,0,0,0,0,0,0,0,0,0,0,0,0,0],"sum_hessian":[1.448478E3,6.5200525E2,7.9647284E2,7.9362335E2,2.8494554E0,7.605075E2,3.3115852E1,6.9663165E2,6.3875854E1,8.498606E0,2.4617247E1,1.2165813E0,6.954151E2,2.9966786E0,6.0879173E1,2.7843857E0,2.183286E1,5.869696E2,1.08445496E2,5.826222E1,2.6169548E0,2.0638655E1,1.1942062E0],"tree_param":{"num_deleted":"0","num_feature":"25","num_nodes":"23","size_leaf_vector":"1"}},{"base_weights":[5.6559253E-2,-1.405673E-1,1.112487E0,1.2220643E0,-1.6908832E-1,1.2289846E0,-1.0392024E-1,1.2561675E0,7.000746E-1,1.1839402E0,1.4180615E0,9.1335976E-1,-1.22045614E-1,1.2213953E-1,1.0984949E-2,1.4324838E-1,6.874776E-2,-1.23873726E-1,1.0949355E-1],"categories":[],"categories_nodes":[],"categories_segments":[],"categories_sizes":[],"default_left":[0,0,0,0,0,0,0,0,0,0,0,0,0,0,0,0,0,0,0],"id":6,"left_children":[1,-1,3,5,-1,7,-1,9,11,13,15,17,-1,-1,-1,-1,-1,-1,-1],"loss_changes":[2.237952E3,0E0,2.606012E2,1.396106E1,0E0,1.0745117E1,0E0,7.298584E0,1.822925E1,2.1467468E1,1.45755E0,1.6274761E1,0E0,0E0,0E0,0E0,0E0,0E0,0E0],"parents":[2147483647,0,0,2,2,3,3,5,5,7,7,8,8,9,9,10,10,11,11],"right_children":[2,-1,4,6,-1,8,-1,10,12,14,16,18,-1,-1,-1,-1,-1,-1,-1],"split_conditions":[1.5174211E0,-1.405673E-1,1.7215693E0,4.491222E0,-1.6908832E-1,2.0466397E0,-1.0392024E-1,3.4274106E0,2.236068E0,1.4524741E0,1.6389399E0,-3.0594087E-1,-1.22045614E-1,1.2213953E-1,1.0984949E-2,1.4324838E-1,6.874776E-2,-1.23873726E-1,1.0949355E-1],"split_indices":[17,0,14,0,0,2,0,17,19,5,7,5,0,0,0,0,0,0,0],"split_type":[0,0,0,0,0,0,0,0,0,0,0,0,0,0,0,0,0,0,0],"sum_hessian":[1.4474271E3,6.0680365E2,8.406235E2,8.095443E2,3.1079165E1,8.075295E2,2.0148504E0,7.6674805E2,4.0781418E1,5.359517E2,2.3079631E2,3.7177124E1,3.6042943E0,5.177596E2,1.8192125E1,2.2538628E2,5.4100394E0,2.4396317E0,3.473749E1],"tree_param":{"num_deleted":"0","num_feature":"25","num_nodes":"19","size_leaf_vector":"1"}},{"base_weights":[2.3616599E-2,2.181618E-1,-1.3603075E-1,2.890303E-1,-5.38495E-1,-1.2888664E-1,3.0811018E-1,-1.3381837E-1,-2.9391706E-2,5.405266E-1,1.9867961E-1,-8.4732723E-1,4.263196E-1,5.604778E-1,-1.101092E-1,2.4535567E-1,-7.662449E-1,2.5273857E-1,-1.3103162E-1,7.8174955E-1,-1.2002102E-1,4.1061472E-2,7.206994E-2,3.101174E-2,-2.4033766E-2,6.516699E-2,-1.4778689E-1,-9.916849E-2,1.101594E-1,1.20208815E-1,-2.6568344E-2],"categories":[],"categories_nodes":[],"categories_segments":[],"categories_sizes":[],"default_left":[0,0,0,0,0,0,0,0,0,0,0,0,0,0,0,0,0,0,0,0,0,0,0,0,0,0,0,0,0,0,0],"id":7,"left_children":[1,3,-1,5,7,-1,9,-1,11,13,15,17,19,21,-1,23,25,27,-1,29,-1,-1,-1,-1,-1,-1,-1,-1,-1,-1,-1],"loss_changes":[3.659039E2,6.40444E1,0E0,3.321444E1,4.16433E1,0E0,2.7305832E1,0E0,2.4060139E1,1.1898743E1,3.3264023E1,1.2088072E1,2.4927958E1,7.891426E0,0E0,2.213221E1,3.5398796E1,9.200706E0,0E0,1.5579432E1,0E0,0E0,0E0,0E0,0E0,0E0,0E0,0E0,0E0,0E0,0E0],"parents":[2147483647,0,0,1,1,3,3,4,4,6,6,8,8,9,9,10,10,11,11,12,12,13,13,15,15,16,16,17,17,19,19],"right_children":[2,4,-1,6,8,-1,10,-1,12,14,16,18,20,22,-1,24,26,28,-1,30,-1,-1,-1,-1,-1,-1,-1,-1,-1,-1,-1],"split_conditions":[1.7215693E0,2.0466397E0,-1.3603075E-1,-1.4963454E0,-2.7566734E-1,-1.2888664E-1,-5.835084E-1,-1.3381837E-1,4.1313604E-1,1.6941806E0,1.7157229E0,-1.3005902E0,1.3397995E0,9.5045224E-2,-1.101092E-1,2.0466397E0,-9.5250577E-1,1.409009E0,-1.3103162E-1,1.1511453E-1,-1.2002102E-1,4.1061472E-2,7.206994E-2,3.101174E-2,-2.4033766E-2,6.516699E-2,-1.4778689E-1,-9.916849E-2,1.101594E-1,1.20208815E-1,-2.6568344E-2],"split_indices":[14,2,0,5,8,0,10,0,5,5,9,11,4,11,0,0,5,10,0,8,0,0,0,0,0,0,0,0,0,0,0],"split_type":[0,0,0,0,0,0,0,0,0,0,0,0,0,0,0,0,0,0,0,0,0,0,0,0,0,0,0,0,0,0,0],"sum_hessian":[1.356944E3,1.1904402E3,1.6650383E2,1.089057E3,1.01383095E2,1.2216389E1,1.0768407E3,3.8803253E1,6.257984E1,3.4345245E2,7.333882E2,2.2083614E1,4.0496227E1,3.3997913E2,3.4733155E0,7.002604E2,3.3127804E1,6.675849E0,1.5407765E1,3.3660168E1,6.8360577E0,1.7750903E2,1.6247011E2,6.181929E2,8.206755E1,1.109841E1,2.2029392E1,2.6389225E0,4.0369263E0,2.3915245E1,9.744925E0],"tree_param":{"num_deleted":"0","num_feature":"25","num_nodes":"31","size_leaf_vector":"1"}},{"base_weights":[5.0381232E-2,-1.3465497E-1,1.05404E0,1.1484877E0,-1.496957E-1,1.1569777E0,-1.3220085E-1,1.1637511E0,-9.818404E-2,1.0957958E0,1.3222879E-1,1.15770034E-1,6.7963116E-2],"categories":[],"categories_nodes":[],"categories_segments":[],"categories_sizes":[],"default_left":[0,0,0,0,0,0,0,0,0,0,0,0,0],"id":8,"left_children":[1,-1,3,5,-1,7,-1,9,-1,11,-1,-1,-1],"loss_changes":[1.8995088E3,0E0,1.9166211E2,1.748645E1,0E0,1.2134033E1,0E0,6.7039795E0,0E0,1.3010254E1,0E0,0E0,0E0],"parents":[2147483647,0,0,2,2,3,3,5,5,7,7,9,9],"right_children":[2,-1,4,6,-1,8,-1,10,-1,12,-1,-1,-1],"split_conditions":[1.5174211E0,-1.3465497E-1,1.7215693E0,4.491222E0,-1.496957E-1,4.491222E0,-1.3220085E-1,3.4274106E0,-9.818404E-2,2.236068E0,1.3222879E-1,1.15770034E-1,6.7963116E-2],"split_indices":[17,0,14,1,0,0,0,17,0,19,0,0,0],"split_type":[0,0,0,0,0,0,0,0,0,0,0,0,0],"sum_hessian":[1.3528036E3,5.6544867E2,7.8735486E2,7.597749E2,2.7579988E1,7.577027E2,2.0722144E0,7.5576514E2,1.9375355E0,5.3454803E2,2.2121709E2,4.6377902E2,7.0769005E1],"tree_param":{"num_deleted":"0","num_feature":"25","num_nodes":"13","size_leaf_vector":"1"}},{"base_weights":[4.183953E-2,-1.3039581E-1,9.889899E-1,1.0309092E0,3.738901E-1,1.0871634E0,5.9363717E-1,-2.6582542E-1,9.9905014E-1,1.0926332E0,-1.044603E-1,7.376102E-1,-2.2129165E-1,-1.4423618E-1,6.906713E-1,1.2102064E-1,-1.2608829E-1,1.0979785E0,-9.3689896E-2,8.322767E-1,-1.8949586E-1,9.4575477E-1,-1.10721506E-1,1.1127695E-1,3.645263E-2,-1.7137395E-1,8.976292E-2,4.564398E-2,1.1679845E-1],"categories":[],"categories_nodes":[],"categories_segments":[],"categories_sizes":[],"default_left":[0,0,0,0,0,0,0,0,0,0,0,0,0,0,0,0,0,0,0,0,0,0,0,0,0,0,0,0,0],"id":9,"left_children":[1,-1,3,5,7,9,11,13,15,17,-1,19,-1,-1,21,-1,-1,23,-1,25,-1,27,-1,-1,-1,-1,-1,-1,-1],"loss_changes":[1.6223475E3,0E0,1.8875427E1,1.6543152E1,1.995343E1,8.346436E0,3.4705593E1,2.9266254E1,1.3507378E1,7.720154E0,0E0,2.1167236E1,0E0,0E0,7.711895E0,0E0,0E0,6.2732544E0,0E0,1.4279198E1,0E0,9.0944576E-1,0E0,0E0,0E0,0E0,0E0,0E0,0E0],"parents":[2147483647,0,0,2,2,3,3,4,4,5,5,6,6,7,7,8,8,9,9,11,11,14,14,17,17,19,19,21,21],"right_children":[2,-1,4,6,8,10,12,14,16,18,-1,20,-1,-1,22,-1,-1,24,-1,26,-1,28,-1,-1,-1,-1,-1,-1,-1],"split_conditions":[1.5174211E0,-1.3039581E-1,2.0466397E0,2.236068E0,8.925512E-1,3.6249862E0,9.6148396E-1,7.7587265E-1,1.2248453E0,4.491222E0,-1.044603E-1,1.2168102E0,-2.2129165E-1,-1.4423618E-1,5.979509E-1,1.2102064E-1,-1.2608829E-1,1.6941806E0,-9.3689896E-2,-4.5744088E-1,-1.8949586E-1,2.9832545E-1,-1.10721506E-1,1.1127695E-1,3.645263E-2,-1.7137395E-1,8.976292E-2,4.564398E-2,1.1679845E-1],"split_indices":[17,0,2,21,11,10,7,10,11,1,0,5,0,0,3,0,0,5,0,3,0,5,0,0,0,0,0,0,0],"split_type":[0,0,0,0,0,0,0,0,0,0,0,0,0,0,0,0,0,0,0,0,0,0,0,0,0,0,0,0,0],"sum_hessian":[1.2707445E3,5.2475214E2,7.4599243E2,6.977635E2,4.8228924E1,6.169126E2,8.085088E1,2.4121054E1,2.4107872E1,6.1581995E2,1.0926586E0,7.760692E1,3.2439647E0,1.0588605E1,1.3532449E1,2.2472641E1,1.6352307E0,6.146601E2,1.1598245E0,7.557318E1,2.0337384E0,1.2266102E1,1.2663469E0,6.0200275E2,1.2657371E1,1.2600698E0,7.431311E1,4.7847476E0,7.4813538E0],"tree_param":{"num_deleted":"0","num_feature":"25","num_nodes":"29","size_leaf_vector":"1"}},{"base_weights":[3.6363587E-2,-1.2661035E-1,9.33301E-1,1.0331678E0,-1.473295E-1,1.0711226E0,2.9868954E-1,9.965643E-1,1.2488806E0,-1.5356511E-1,6.2883234E-1,1.0462309E0,4.7437802E-1,1.266636E-1,4.7653176E-2,9.007377E-1,-1.17476635E-1,1.2017761E-3,1.0590749E-1,9.053292E-2,-2.0847002E-1,-1.0497216E-1,1.0893996E-1],"categories":[],"categories_nodes":[],"categories_segments":[],"categories_sizes":[],"default_left":[0,0,0,0,0,0,0,0,0,0,0,0,0,0,0,0,0,0,0,0,0,0,0],"id":10,"left_children":[1,-1,3,5,-1,7,9,11,13,-1,15,17,19,-1,-1,21,-1,-1,-1,-1,-1,-1,-1],"loss_changes":[1.3803458E3,0E0,1.6968524E2,1.8424622E1,0E0,7.223938E0,2.181404E1,1.1307068E1,1.9314575E0,0E0,1.5713914E1,5.496582E0,4.749716E1,0E0,0E0,1.0908115E1,0E0,0E0,0E0,0E0,0E0,0E0,0E0],"parents":[2147483647,0,0,2,2,3,3,5,5,6,6,7,7,8,8,10,10,11,11,12,12,15,15],"right_children":[2,-1,4,6,-1,8,10,12,14,-1,16,18,20,-1,-1,22,-1,-1,-1,-1,-1,-1,-1],"split_conditions":[1.5174211E0,-1.2661035E-1,1.7215693E0,2.0466397E0,-1.473295E-1,3.4274106E0,-4.8234406E-1,2.0466397E0,1.6389399E0,-1.5356511E-1,1.0838716E0,-8.4373784E-1,-2.7566734E-1,1.266636E-1,4.7653176E-2,-3.0594087E-1,-1.17476635E-1,1.2017761E-3,1.0590749E-1,9.053292E-2,-2.0847002E-1,-1.0497216E-1,1.0893996E-1],"split_indices":[17,0,14,2,0,17,7,0,7,0,5,5,8,0,0,5,0,0,0,0,0,0,0],"split_type":[0,0,0,0,0,0,0,0,0,0,0,0,0,0,0,0,0,0,0,0,0,0,0],"sum_hessian":[1.1795574E3,4.808665E2,6.9869086E2,6.714003E2,2.7290497E1,6.3797406E2,3.34263E1,4.5410968E2,1.8386438E2,4.5414734E0,2.8884827E1,4.137529E2,4.0356785E1,1.7910698E2,4.7574096E0,2.5535725E1,3.3491035E0,5.099123E0,4.0865378E2,3.5093273E1,5.263512E0,1.8496192E0,2.3686104E1],"tree_param":{"num_deleted":"0","num_feature":"25","num_nodes":"23","size_leaf_vector":"1"}},{"base_weights":[2.3914384E-2,-1.2347516E-1,8.898043E-1,9.924903E-1,-1.4021632E-1,1.0794401E0,6.964135E-1,1.1159227E0,5.192362E-1,7.622185E-1,-1.806228E-1,-1.355669E-1,1.1254578E0,-1.7407869E-1,7.216033E-1,8.142776E-1,-1.2811105E-1,1.1490861E-1,1.0147901E-1,1.00657664E-1,1.3554885E-2,-5.0125595E-2,8.853071E-2],"categories":[],"categories_nodes":[],"categories_segments":[],"categories_sizes":[],"default_left":[0,0,0,0,0,0,0,0,0,0,0,0,0,0,0,0,0,0,0,0,0,0,0],"id":11,"left_children":[1,-1,3,5,-1,7,9,11,13,15,-1,-1,17,-1,19,21,-1,-1,-1,-1,-1,-1,-1],"loss_changes":[1.2046606E3,0E0,1.5550586E2,1.5398071E1,0E0,9.294128E0,2.5293488E1,1.2194214E1,1.5620733E1,1.6170486E1,0E0,0E0,1.4526367E-2,0E0,4.795987E0,1.3458984E1,0E0,0E0,0E0,0E0,0E0,0E0,0E0],"parents":[2147483647,0,0,2,2,3,3,5,5,6,6,7,7,8,8,9,9,12,12,14,14,15,15],"right_children":[2,-1,4,6,-1,8,10,12,14,16,-1,-1,18,-1,20,22,-1,-1,-1,-1,-1,-1,-1],"split_conditions":[1.5174211E0,-1.2347516E-1,1.7215693E0,6.790132E-1,-1.4021632E-1,2.0466397E0,1.6389399E0,-1.6328843E0,-5.1608413E-1,2.0803797E0,-1.806228E-1,-1.355669E-1,3.103312E-1,-1.7407869E-1,-2.8781286E-1,-8.083697E-1,-1.2811105E-1,1.1490861E-1,1.0147901E-1,1.00657664E-1,1.3554885E-2,-5.0125595E-2,8.853071E-2],"split_indices":[17,0,14,5,0,1,7,11,9,3,0,0,10,0,5,7,0,0,0,0,0,0,0],"split_type":[0,0,0,0,0,0,0,0,0,0,0,0,0,0,0,0,0,0,0,0,0,0,0],"sum_hessian":[1.1033208E3,4.494989E2,6.5382196E2,6.263279E2,2.7494114E1,4.821016E2,1.4422626E2,4.516936E2,3.0407986E1,1.4120872E2,3.0175333E0,1.1933221E0,4.5050027E2,1.8742583E0,2.8533728E1,1.38287E2,2.921729E0,3.635059E2,8.6994385E1,1.8715584E1,9.818142E0,6.7737494E0,1.3151324E2],"tree_param":{"num_deleted":"0","num_feature":"25","num_nodes":"23","size_leaf_vector":"1"}},{"base_weights":[3.701616E-4,1.56522E-1,-1.2066028E-1,2.1333157E-1,-3.014356E-1,-1.1831962E-1,2.3125136E-1,-1.3840295E-1,-1.306804E-1,2.4668881E-1,-1.2334067E-1,2.274255E-3,-1.2164614E-1,9.568744E-2,3.5207146E-1,-4.904644E-1,4.700619E-1,3.3586666E-2,-4.0389593E-3,4.406402E-2,7.7877366E-3,-9.156557E-2,8.959495E-2,7.8704864E-2,-4.4032913E-2],"categories":[],"categories_nodes":[],"categories_segments":[],"categories_sizes":[],"default_left":[0,0,0,0,0,0,0,0,0,0,0,0,0,0,0,0,0,0,0,0,0,0,0,0,0],"id":12,"left_children":[1,3,-1,5,7,-1,9,11,-1,13,-1,15,-1,17,19,21,23,-1,-1,-1,-1,-1,-1,-1,-1],"loss_changes":[1.9463347E2,2.3853539E1,0E0,2.0646065E1,1.6427393E1,0E0,1.8496552E1,1.3395197E1,0E0,1.26494255E1,0E0,1.8465548E1,0E0,1.0765611E1,1.1356609E1,2.3820961E1,1.2205531E1,0E0,0E0,0E0,0E0,0E0,0E0,0E0,0E0],"parents":[2147483647,0,0,1,1,3,3,4,4,6,6,7,7,9,9,11,11,13,13,14,14,15,15,16,16],"right_children":[2,4,-1,6,8,-1,10,12,-1,14,-1,16,-1,18,20,22,24,-1,-1,-1,-1,-1,-1,-1,-1],"split_conditions":[1.7215693E0,2.0466397E0,-1.2066028E-1,-1.4903028E0,2.0466397E0,-1.1831962E-1,2.0803797E0,7.709495E-1,-1.306804E-1,-4.4843683E-1,-1.2334067E-1,-2.4100037E-1,-1.2164614E-1,-5.835084E-1,1.05492964E-1,1.7509512E0,-3.5010198E-1,3.3586666E-2,-4.0389593E-3,4.406402E-2,7.7877366E-3,-9.156557E-2,8.959495E-2,7.8704864E-2,-4.4032913E-2],"split_indices":[14,0,0,5,1,0,3,7,0,6,0,7,0,10,10,3,8,0,0,0,0,0,0,0,0],"split_type":[0,0,0,0,0,0,0,0,0,0,0,0,0,0,0,0,0,0,0,0,0,0,0,0,0],"sum_hessian":[1.0306948E3,9.133949E2,1.1729993E2,8.130681E2,1.003268E2,9.477009E0,8.0359106E2,8.730663E1,1.3020162E1,7.960325E2,7.5585885E0,7.811164E1,9.194995E0,3.27981E2,4.680515E2,3.801768E1,4.0093956E1,1.1808678E2,2.098942E2,3.5331766E2,1.1473385E2,2.935463E1,8.663053E0,2.983965E1,1.0254309E1],"tree_param":{"num_deleted":"0","num_feature":"25","num_nodes":"25","size_leaf_vector":"1"}},{"base_weights":[3.770166E-2,-1.205556E-1,8.6146396E-1,8.972874E-1,2.638999E-1,-1.1572044E-1,9.045909E-1,-1.5856917E-1,6.163496E-1,8.4587425E-1,1.2000624E-1,8.02804E-1,-1.1453432E-1,9.0015465E-1,2.4917638E-1,-9.024277E-2,9.382202E-1,9.35504E-2,2.375557E-2,6.6296935E-2,-1.7674005E-1,4.6182532E-2,1.14550665E-1],"categories":[],"categories_nodes":[],"categories_segments":[],"categories_sizes":[],"default_left":[0,0,0,0,0,0,0,0,0,0,0,0,0,0,0,0,0,0,0,0,0,0,0],"id":13,"left_children":[1,-1,3,5,7,-1,9,-1,11,13,-1,15,-1,17,19,-1,21,-1,-1,-1,-1,-1,-1],"loss_changes":[1.0556241E3,0E0,1.3033966E1,9.816498E0,2.475763E1,0E0,9.098419E0,0E0,1.1220643E1,1.5636383E1,0E0,7.5309906E0,0E0,1.0282196E1,3.639761E1,0E0,2.1676083E0,0E0,0E0,0E0,0E0,0E0,0E0],"parents":[2147483647,0,0,2,2,3,3,4,4,6,6,8,8,9,9,11,11,13,13,14,14,16,16],"right_children":[2,-1,4,6,8,-1,10,-1,12,14,-1,16,-1,18,20,-1,22,-1,-1,-1,-1,-1,-1],"split_conditions":[1.5174211E0,-1.205556E-1,1.519131E0,-1.4842601E0,1.7509512E0,-1.1572044E-1,3.904908E0,-1.5856917E-1,3.7663868E-1,2.0466397E0,1.2000624E-1,-4.366254E-1,-1.1453432E-1,2.0466397E0,-2.7566734E-1,-9.024277E-2,-7.097207E-2,9.35504E-2,2.375557E-2,6.6296935E-2,-1.7674005E-1,4.6182532E-2,1.14550665E-1],"split_indices":[17,0,3,5,3,0,17,0,9,0,0,11,0,2,8,0,8,0,0,0,0,0,0],"split_type":[0,0,0,0,0,0,0,0,0,0,0,0,0,0,0,0,0,0,0,0,0,0,0],"sum_hessian":[1.0287191E3,4.0978714E2,6.1893195E2,5.834529E2,3.5479103E1,1.5090371E0,5.819438E2,5.1185946E0,3.036051E1,4.8869266E2,9.3251144E1,2.7946953E1,2.4135563E0,4.4747794E2,4.121472E1,1.639346E0,2.6307608E1,4.244233E2,2.305465E1,3.475449E1,6.4602327E0,8.954935E0,1.7352673E1],"tree_param":{"num_deleted":"0","num_feature":"25","num_nodes":"23","size_leaf_vector":"1"}},{"base_weights":[3.0162353E-2,-1.1819911E-1,8.091734E-1,9.0259683E-1,-1.3185981E-1,9.39487E-1,2.7291527E-1,9.4688255E-1,-1.193757E-1,-1.433176E-1,7.1268165E-1,9.6810627E-1,1.6510871E-1,-1.2562001E-1,9.29205E-1,9.965894E-2,5.7771154E-2,-1.5575932E-1,1.07257664E-1,1.2295598E-1,-6.311388E-3],"categories":[],"categories_nodes":[],"categories_segments":[],"categories_sizes":[],"default_left":[0,0,0,0,0,0,0,0,0,0,0,0,0,0,0,0,0,0,0,0,0],"id":14,"left_children":[1,-1,3,5,-1,7,9,11,-1,-1,13,15,17,-1,19,-1,-1,-1,-1,-1,-1],"loss_changes":[9.1412494E2,0E0,1.1833377E2,1.2870575E1,0E0,9.545929E0,2.5543869E1,8.669556E0,0E0,0E0,1.2530101E1,5.1828003E0,2.5542843E1,0E0,7.406006E0,0E0,0E0,0E0,0E0,0E0,0E0],"parents":[2147483647,0,0,2,2,3,3,5,5,6,6,7,7,10,10,11,11,12,12,14,14],"right_children":[2,-1,4,6,-1,8,10,12,-1,-1,14,16,18,-1,20,-1,-1,-1,-1,-1,-1],"split_conditions":[1.5174211E0,-1.1819911E-1,1.7215693E0,2.0466397E0,-1.3185981E-1,4.491222E0,-2.7566734E-1,1.615626E0,-1.193757E-1,-1.433176E-1,4.0709338E-1,2.0466397E0,2.4676414E0,-1.2562001E-1,1.1511453E-1,9.965894E-2,5.7771154E-2,-1.5575932E-1,1.07257664E-1,1.2295598E-1,-6.311388E-3],"split_indices":[17,0,14,2,0,1,8,5,0,0,5,1,5,0,8,0,0,0,0,0,0],"split_type":[0,0,0,0,0,0,0,0,0,0,0,0,0,0,0,0,0,0,0,0,0],"sum_hessian":[9.6605176E2,3.7774982E2,5.8830194E2,5.6410956E2,2.4192389E1,5.324252E2,3.168436E1,5.3113995E2,1.2852304E0,6.030366E0,2.5653996E1,5.168695E2,1.4270424E1,2.0659838E0,2.358801E1,4.8027588E2,3.6593655E1,4.6764383E0,9.593986E0,1.792377E1,5.66424E0],"tree_param":{"num_deleted":"0","num_feature":"25","num_nodes":"21","size_leaf_vector":"1"}},{"base_weights":[2.154037E-2,1.5934104E-1,-1.1537826E-1,2.1187209E-1,-3.9126948E-1,2.644144E-1,-2.4247305E-1,-1.1972859E-1,7.74179E-2,2.1188015E-1,5.5391604E-1,-1.2043567E-1,-1.7993648E-2,4.8377073E-1,-7.061438E-1,2.336797E-1,-8.90274E-1,6.166649E-1,-1.06589615E-1,1.19785994E-1,-1.23145096E-1,9.6040773E-1,-7.801245E-2,-1.2371804E-1,7.313677E-2,1.1578303E-2,3.897222E-2,-1.5886396E-1,4.638244E-2,6.649247E-2,-8.774429E-2,-1.4659777E-2,7.579713E-2,6.0188163E-2,1.17396034E-1,-1.0591968E-1,7.963383E-2],"categories":[],"categories_nodes":[],"categories_segments":[],"categories_sizes":[],"default_left":[0,0,0,0,0,0,0,0,0,0,0,0,0,0,0,0,0,0,0,0,0,0,0,0,0,0,0,0,0,0,0,0,0,0,0,0,0],"id":15,"left_children":[1,3,-1,5,7,9,11,-1,13,15,17,-1,19,21,23,25,27,29,-1,31,-1,33,35,-1,-1,-1,-1,-1,-1,-1,-1,-1,-1,-1,-1,-1,-1],"loss_changes":[1.4517361E2,2.3284454E1,0E0,1.7561016E1,2.6617887E1,9.881493E0,1.649546E1,0E0,1.4777197E1,1.3616781E1,1.0857899E1,0E0,1.0686549E1,8.227969E0,1.3034203E1,1.00372925E1,1.1169464E1,7.5956345E0,0E0,9.889682E0,0E0,5.6036854E-1,1.3626793E1,0E0,0E0,0E0,0E0,0E0,0E0,0E0,0E0,0E0,0E0,0E0,0E0,0E0,0E0],"parents":[2147483647,0,0,1,1,3,3,4,4,5,5,6,6,8,8,9,9,10,10,12,12,13,13,14,14,15,15,16,16,17,17,19,19,21,21,22,22],"right_children":[2,4,-1,6,8,10,12,-1,14,16,18,-1,20,22,24,26,28,30,-1,32,-1,34,36,-1,-1,-1,-1,-1,-1,-1,-1,-1,-1,-1,-1,-1,-1],"split_conditions":[1.7215693E0,2.0466397E0,-1.1537826E-1,2.0466397E0,-2.7566734E-1,1.2873108E0,-4.366254E-1,-1.1972859E-1,-2.1850988E-1,1.1836017E0,1.6176367E0,-1.2043567E-1,2.0466397E0,-8.958073E-2,3.984727E0,-2.94276E-1,1.5293727E0,1.3623534E0,-1.06589615E-1,1.4825277E0,-1.23145096E-1,-1.4540671E-1,7.944943E-1,-1.2371804E-1,7.313677E-2,1.1578303E-2,3.897222E-2,-1.5886396E-1,4.638244E-2,6.649247E-2,-8.774429E-2,-1.4659777E-2,7.579713E-2,6.0188163E-2,1.17396034E-1,-1.0591968E-1,7.963383E-2],"split_indices":[14,2,0,0,8,3,11,0,9,3,6,0,1,8,9,8,8,9,0,3,0,8,10,0,0,0,0,0,0,0,0,0,0,0,0,0,0],"split_type":[0,0,0,0,0,0,0,0,0,0,0,0,0,0,0,0,0,0,0,0,0,0,0,0,0,0,0,0,0,0,0,0,0,0,0,0,0],"sum_hessian":[8.9421814E2,8.011516E2,9.3066536E1,7.3193634E2,6.921525E1,6.564409E2,7.5495445E1,2.4877714E1,4.4337536E1,5.570822E2,9.9358696E1,1.3459029E1,6.2036415E1,2.9448322E1,1.48892145E1,5.4705005E2,1.0032146E1,9.624945E1,3.109248E0,5.652022E1,5.516193E0,1.55476055E1,1.3900716E1,1.0974458E1,3.9147565E0,3.1260547E2,2.344446E2,6.504363E0,3.5277832E0,9.377547E1,2.4739826E0,4.0419205E1,1.6101015E1,7.22919E0,8.318416E0,6.450568E0,7.450148E0],"tree_param":{"num_deleted":"0","num_feature":"25","num_nodes":"37","size_leaf_vector":"1"}},{"base_weights":[6.342688E-3,-1.1617037E-1,7.5741863E-1,8.450617E-1,-1.236104E-1,8.976173E-1,2.4148107E-1,9.052563E-1,-1.13393344E-1,-7.3123795E-1,7.9634225E-1,9.81934E-1,6.7156214E-1,4.5194727E-1,-1.7743513E-1,9.082928E-1,-9.707701E-2,1.0100154E-1,3.967627E-2,7.491445E-2,-2.0468044E-1,-1.3723889E-1,9.14257E-2,3.1849455E-2,1.1075485E-1],"categories":[],"categories_nodes":[],"categories_segments":[],"categories_sizes":[],"default_left":[0,0,0,0,0,0,0,0,0,0,0,0,0,0,0,0,0,0,0,0,0,0,0,0,0],"id":16,"left_children":[1,-1,3,5,-1,7,9,11,-1,13,15,17,19,21,-1,23,-1,-1,-1,-1,-1,-1,-1,-1,-1],"loss_changes":[7.6424524E2,0E0,9.368082E1,1.5912628E1,0E0,8.279694E0,2.3302355E1,7.694092E0,0E0,2.0316612E1,6.279314E0,5.331604E0,2.6489578E1,8.175236E0,0E0,2.7233677E0,0E0,0E0,0E0,0E0,0E0,0E0,0E0,0E0,0E0],"parents":[2147483647,0,0,2,2,3,3,5,5,6,6,7,7,9,9,10,10,11,11,12,12,13,13,15,15],"right_children":[2,-1,4,6,-1,8,10,12,-1,14,16,18,20,22,-1,24,-1,-1,-1,-1,-1,-1,-1,-1,-1],"split_conditions":[1.5174211E0,-1.1617037E-1,1.7215693E0,2.0466397E0,-1.236104E-1,4.491222E0,2.1859174E0,8.179945E-1,-1.13393344E-1,-2.0321558E-1,7.709495E-1,2.0466397E0,1.6389399E0,6.9317466E-1,-1.7743513E-1,6.977245E-1,-9.707701E-2,1.0100154E-1,3.967627E-2,7.491445E-2,-2.0468044E-1,-1.3723889E-1,9.14257E-2,3.1849455E-2,1.1075485E-1],"split_indices":[17,0,14,0,0,1,17,5,0,5,7,2,7,11,0,16,0,0,0,0,0,0,0,0,0],"split_type":[0,0,0,0,0,0,0,0,0,0,0,0,0,0,0,0,0,0,0,0,0,0,0,0,0],"sum_hessian":[8.691388E2,3.399359E2,5.292029E2,5.0746866E2,2.173421E1,4.66373E2,4.109566E1,4.6517822E2,1.1947495E0,1.4811668E1,2.6283995E1,3.478446E2,1.1733362E2,7.205419E0,7.606249E0,2.5175097E1,1.1088974E0,3.3122375E2,1.662086E1,1.1478214E2,2.5514748E0,1.0587806E0,6.1466384E0,7.013502E0,1.8161594E1],"tree_param":{"num_deleted":"0","num_feature":"25","num_nodes":"25","size_leaf_vector":"1"}},{"base_weights":[1.9958347E-2,-1.1431121E-1,7.320475E-1,8.183357E-1,-1.2054565E-1,7.1834636E-1,1.0668937E0,7.466915E-1,-1.2600833E-1,1.0805299E0,4.394695E-2,7.810303E-1,-2.5218086E-2,1.0993725E-1,6.518919E-1,1.047016E-1,6.95117E-2,8.278337E-2,-1.0200391E-1,-8.019601E-2,1.0333083E-1],"categories":[],"categories_nodes":[],"categories_segments":[],"categories_sizes":[],"default_left":[0,0,0,0,0,0,0,0,0,0,0,0,0,0,0,0,0,0,0,0,0],"id":17,"left_children":[1,-1,3,5,-1,7,9,11,-1,13,-1,15,17,-1,19,-1,-1,-1,-1,-1,-1],"loss_changes":[6.7582837E2,0E0,8.560068E1,1.1290649E1,0E0,2.051358E1,6.9821167E-1,9.156937E0,0E0,3.616333E-1,0E0,6.8148346E0,1.4126015E1,0E0,5.3084364E0,0E0,0E0,0E0,0E0,0E0,0E0],"parents":[2147483647,0,0,2,2,3,3,5,5,6,6,7,7,9,9,11,11,12,12,14,14],"right_children":[2,-1,4,6,-1,8,10,12,-1,14,-1,16,18,-1,20,-1,-1,-1,-1,-1,-1],"split_conditions":[1.5174211E0,-1.1431121E-1,1.7215693E0,3.4274106E0,-1.2054565E-1,1.7425219E0,2.2698207E0,1.7157229E0,-1.2600833E-1,2.0466397E0,4.394695E-2,1.7561698E0,-5.835084E-1,1.0993725E-1,-2.1107522E-1,1.047016E-1,6.95117E-2,8.278337E-2,-1.0200391E-1,-8.019601E-2,1.0333083E-1],"split_indices":[17,0,14,17,0,5,7,9,0,2,0,17,10,0,10,0,0,0,0,0,0],"split_type":[0,0,0,0,0,0,0,0,0,0,0,0,0,0,0,0,0,0,0,0,0],"sum_hessian":[8.140007E2,3.088857E2,5.0511493E2,4.841314E2,2.0983524E1,3.480206E2,1.3611082E2,3.437187E2,4.301908E0,1.3250874E2,3.6020718E0,3.2906815E2,1.4650557E1,1.2543015E2,7.078594E0,7.760813E1,2.5146E2,7.977642E0,6.6729145E0,1.2419697E0,5.8366246E0],"tree_param":{"num_deleted":"0","num_feature":"25","num_nodes":"21","size_leaf_vector":"1"}},{"base_weights":[6.1481404E-3,-1.126941E-1,6.953135E-1,7.711719E-1,-1.1644743E-1,6.6423935E-1,1.0344833E0,7.4008673E-1,-9.0211876E-2,1.0485399E0,4.120667E-2,8.386327E-1,4.0570948E-1,-6.736699E-1,8.992646E-1,8.566719E-1,1.09538555E-1,-1.3366193E-1,8.554911E-2,5.547257E-2,-1.9892298E-1,6.8994425E-2,-2.4033931E-1,4.193685E-2,1.0342544E-1,9.721913E-2,-1.2168709E-2],"categories":[],"categories_nodes":[],"categories_segments":[],"categories_sizes":[],"default_left":[0,0,0,0,0,0,0,0,0,0,0,0,0,0,0,0,0,0,0,0,0,0,0,0,0,0,0],"id":18,"left_children":[1,-1,3,5,-1,7,9,11,13,15,-1,17,19,21,23,25,-1,-1,-1,-1,-1,-1,-1,-1,-1,-1,-1],"loss_changes":[5.975938E2,0E0,6.8030975E1,1.2202972E1,0E0,1.8857391E1,7.0903015E-1,9.495346E0,1.8438137E1,2.0220947E-1,0E0,9.563385E0,2.6043076E1,4.8837337E1,3.3624458E-1,3.4514217E0,0E0,0E0,0E0,0E0,0E0,0E0,0E0,0E0,0E0,0E0,0E0],"parents":[2147483647,0,0,2,2,3,3,5,5,6,6,7,7,8,8,9,9,11,11,12,12,13,13,14,14,15,15],"right_children":[2,-1,4,6,-1,8,10,12,14,16,-1,18,20,22,24,26,-1,-1,-1,-1,-1,-1,-1,-1,-1,-1,-1],"split_conditions":[1.5174211E0,-1.126941E-1,1.7215693E0,3.4274106E0,-1.1644743E-1,2.0466397E0,2.2698207E0,9.8114634E-1,7.321766E-1,-9.041645E-1,4.120667E-2,-1.6328843E0,9.868885E-1,-5.960135E-1,-3.7872426E-2,-6.2101953E-2,1.09538555E-1,-1.3366193E-1,8.554911E-2,5.547257E-2,-1.9892298E-1,6.8994425E-2,-2.4033931E-1,4.193685E-2,1.0342544E-1,9.721913E-2,-1.2168709E-2],"split_indices":[17,0,14,17,0,1,7,5,6,5,0,11,7,6,11,10,0,0,0,0,0,0,0,0,0,0,0],"split_type":[0,0,0,0,0,0,0,0,0,0,0,0,0,0,0,0,0,0,0,0,0,0,0,0,0,0,0],"sum_hessian":[7.632734E2,2.8842505E2,4.7484836E2,4.5680133E2,1.8047016E1,3.273748E2,1.2942654E2,2.9748657E2,2.9888233E1,1.2589864E2,3.5279107E0,2.2860518E2,6.8881386E1,1.9002388E1,1.0885846E1,2.849157E1,9.740707E1,1.1560364E0,2.2744914E2,6.5569916E1,3.3114688E0,1.0961834E1,8.040554E0,3.2914028E0,7.5944433E0,2.5488348E1,3.0032218E0],"tree_param":{"num_deleted":"0","num_feature":"25","num_nodes":"27","size_leaf_vector":"1"}},{"base_weights":[3.642067E-2,1.4561424E-1,-1.0915865E-1,2.2245601E-1,-1.8147203E-1,-6.2280136E-1,2.5200382E-1,-2.206477E-2,-1.507466E-1,3.6441034E-1,-1.1812194E-1,2.783598E-1,-6.4532995E-1,-3.2494706E-1,7.077603E-1,-6.6920094E-2,7.44928E-2,1.6822712E-1,5.167362E-1,-7.320158E-2,-1.4280032E-1,7.883362E-2,-9.8202E-1,8.0152196E-1,-8.822044E-2,2.213243E-2,-5.8394726E-2,-1.254221E-1,5.5287797E-2,-1.1772912E-1,5.833335E-2,3.8503554E-2,-5.9081048E-2,-1.6288601E-1,-2.2352481E-2,8.716949E-2,-6.252038E-2],"categories":[],"categories_nodes":[],"categories_segments":[],"categories_sizes":[],"default_left":[0,0,0,0,0,0,0,0,0,0,0,0,0,0,0,0,0,0,0,0,0,0,0,0,0,0,0,0,0,0,0,0,0,0,0,0,0],"id":19,"left_children":[1,3,-1,5,7,9,11,13,-1,15,-1,17,19,21,23,-1,-1,25,27,29,-1,31,33,35,-1,-1,-1,-1,-1,-1,-1,-1,-1,-1,-1,-1,-1],"loss_changes":[8.9711525E1,1.6723522E1,0E0,1.3592449E1,2.677394E1,1.0605925E1,1.2489265E1,2.5480364E1,0E0,3.4219193E0,0E0,1.320594E1,6.680672E0,2.1677101E1,5.7484303E0,0E0,0E0,1.402025E1,1.0903927E1,7.7961497E0,0E0,1.0756763E1,1.487533E1,3.7945614E0,0E0,0E0,0E0,0E0,0E0,0E0,0E0,0E0,0E0,0E0,0E0,0E0,0E0],"parents":[2147483647,0,0,1,1,3,3,4,4,5,5,6,6,7,7,9,9,11,11,12,12,13,13,14,14,17,17,18,18,19,19,21,21,22,22,23,23],"right_children":[2,4,-1,6,8,10,12,14,-1,16,-1,18,20,22,24,-1,-1,26,28,30,-1,32,34,36,-1,-1,-1,-1,-1,-1,-1,-1,-1,-1,-1,-1,-1],"split_conditions":[1.7215693E0,5.507763E-1,-1.0915865E-1,-1.4335258E0,1.2547979E0,-7.2071755E-1,1.5293727E0,1.0188875E0,-1.507466E-1,-3.6378926E-1,-1.1812194E-1,-1.8262404E-1,-3.9729178E-1,-3.9033505E-1,1.6176367E0,-6.6920094E-2,7.44928E-2,2.0466397E0,-9.184563E-1,1.2549102E-1,-1.4280032E-1,-4.1591343E-1,1.6176367E0,2.0466397E0,-8.822044E-2,2.213243E-2,-5.8394726E-2,-1.254221E-1,5.5287797E-2,-1.1772912E-1,5.833335E-2,3.8503554E-2,-5.9081048E-2,-1.6288601E-1,-2.2352481E-2,8.716949E-2,-6.252038E-2],"split_indices":[14,7,0,3,4,16,8,3,0,7,0,8,10,3,6,0,0,2,7,4,0,10,6,0,0,0,0,0,0,0,0,0,0,0,0,0,0],"split_type":[0,0,0,0,0,0,0,0,0,0,0,0,0,0,0,0,0,0,0,0,0,0,0,0,0,0,0,0,0,0,0,0,0,0,0,0,0],"sum_hessian":[7.260581E2,6.627713E2,6.3286808E1,5.369472E2,1.2582411E2,1.7458015E1,5.194892E2,1.13228714E2,1.2595398E1,6.4328976E0,1.1025118E1,5.0533652E2,1.4152665E1,8.041197E1,3.2816746E1,1.5268393E0,4.9060583E0,3.4681137E2,1.5852518E2,8.807775E0,5.3448915E0,5.0350746E1,3.0061224E1,3.145755E1,1.3591933E0,3.2460287E2,2.2208479E1,2.496432E0,1.5602873E2,2.9886305E0,5.819144E0,3.4843292E1,1.5507454E1,1.5605478E1,1.4455747E1,3.0353642E1,1.1039088E0],"tree_param":{"num_deleted":"0","num_feature":"25","num_nodes":"37","size_leaf_vector":"1"}},{"base_weights":[2.3457259E-2,-1.1123649E-1,6.859367E-1,7.544799E-1,-1.1144469E-1,8.0769473E-1,1.9383101E-1,7.2218645E-1,1.0460583E0,-1.6571032E-1,4.019902E-1,7.9353124E-1,3.0105165E-1,3.188984E-2,1.0677216E-1,6.3709134E-1,-4.494918E-1,8.456576E-2,1.8329408E-2,-2.8158063E-1,4.561988E-2,-6.4995247E-3,8.8721685E-2,-1.3684635E-1,9.033668E-2],"categories":[],"categories_nodes":[],"categories_segments":[],"categories_sizes":[],"default_left":[0,0,0,0,0,0,0,0,0,0,0,0,0,0,0,0,0,0,0,0,0,0,0,0,0],"id":20,"left_children":[1,-1,3,5,-1,7,9,11,13,-1,15,17,19,-1,-1,21,23,-1,-1,-1,-1,-1,-1,-1,-1],"loss_changes":[5.287311E2,0E0,5.5606384E1,1.2616058E1,0E0,7.207489E0,1.5472031E1,8.497391E0,1.2492218E0,0E0,7.362485E0,7.734741E0,2.2433111E1,0E0,0E0,4.9946737E0,1.1473647E1,0E0,0E0,0E0,0E0,0E0,0E0,0E0,0E0],"parents":[2147483647,0,0,2,2,3,3,5,5,6,6,7,7,8,8,10,10,11,11,12,12,15,15,16,16],"right_children":[2,-1,4,6,-1,8,10,12,14,-1,16,18,20,-1,-1,22,24,-1,-1,-1,-1,-1,-1,-1,-1],"split_conditions":[1.5174211E0,-1.1123649E-1,1.7215693E0,2.0466397E0,-1.1144469E-1,3.4274106E0,1.8495932E0,2.236068E0,-1.4701289E0,-1.6571032E-1,8.179945E-1,2.0466397E0,-2.2738624E-1,3.188984E-2,1.0677216E-1,6.977245E-1,4.7644033E0,8.456576E-2,1.8329408E-2,-2.8158063E-1,4.561988E-2,-6.4995247E-3,8.8721685E-2,-1.3684635E-1,9.033668E-2],"split_indices":[17,0,14,0,0,17,17,19,3,0,5,1,5,0,0,16,17,0,0,0,0,0,0,0,0],"split_type":[0,0,0,0,0,0,0,0,0,0,0,0,0,0,0,0,0,0,0,0,0,0,0,0,0],"sum_hessian":[7.006571E2,2.5786612E2,4.42791E2,4.271112E2,1.5679795E1,3.896832E2,3.742802E1,2.8976532E2,9.9917854E1,3.0800169E0,3.4348003E1,2.4703128E2,4.273405E1,3.3453991E0,9.657246E1,2.7113523E1,7.234479E0,2.2723512E2,1.9796158E1,1.2131424E0,4.152091E1,7.316558E0,1.9796965E1,4.3012114E0,2.9332676E0],"tree_param":{"num_deleted":"0","num_feature":"25","num_nodes":"25","size_leaf_vector":"1"}},{"base_weights":[5.193451E-2,-1.0991787E-1,6.547445E-1,7.1785873E-1,-1.09561495E-1,7.579323E-1,2.5739E-1,8.471671E-1,5.393484E-1,-4.5073336E-1,9.345934E-1,7.206566E-2,8.574027E-1,6.0314256E-1,-1.8486093E-1,-1.4212021E-1,6.042206E-1,1.1383988E-1,-1.11227624E-1,8.423253E-2,-1.2308369E-1,9.55236E-2,7.79457E-2,6.690253E-2,-5.7662684E-2,9.216153E-2,3.8880135E-3],"categories":[],"categories_nodes":[],"categories_segments":[],"categories_sizes":[],"default_left":[0,0,0,0,0,0,0,0,0,0,0,0,0,0,0,0,0,0,0,0,0,0,0,0,0,0,0],"id":21,"left_children":[1,-1,3,5,-1,7,9,11,13,15,17,19,21,23,-1,-1,25,-1,-1,-1,-1,-1,-1,-1,-1,-1,-1],"loss_changes":[4.6829947E2,0E0,4.9711884E1,7.7038116E0,0E0,7.2141266E0,1.7581812E1,2.139923E0,1.8902153E1,1.9458992E1,9.032669E0,5.7623496E0,1.3434296E0,9.283691E0,0E0,0E0,1.6520703E0,0E0,0E0,0E0,0E0,0E0,0E0,0E0,0E0,0E0,0E0],"parents":[2147483647,0,0,2,2,3,3,5,5,6,6,7,7,8,8,9,9,10,10,11,11,12,12,13,13,16,16],"right_children":[2,-1,4,6,-1,8,10,12,14,16,18,20,22,24,-1,-1,26,-1,-1,-1,-1,-1,-1,-1,-1,-1,-1],"split_conditions":[1.5174211E0,-1.0991787E-1,1.7215693E0,2.0466397E0,-1.09561495E-1,5.823306E-1,8.925512E-1,-1.6328843E0,1.5807425E0,1.1855491E0,1.2248453E0,-5.306473E-1,-6.160547E-1,9.868885E-1,-1.8486093E-1,-1.4212021E-1,1.5021173E0,1.1383988E-1,-1.11227624E-1,8.423253E-2,-1.2308369E-1,9.55236E-2,7.79457E-2,6.690253E-2,-5.7662684E-2,9.216153E-2,3.8880135E-3],"split_indices":[17,0,14,2,0,5,11,11,6,10,11,3,3,7,0,0,10,0,0,0,0,0,0,0,0,0,0],"split_type":[0,0,0,0,0,0,0,0,0,0,0,0,0,0,0,0,0,0,0,0,0,0,0,0,0,0,0],"sum_hessian":[6.728407E2,2.3096721E2,4.418735E2,4.2706436E2,1.4809151E1,3.9227917E2,3.47852E1,2.7651773E2,1.1576142E2,1.7167881E1,1.7617317E1,3.7087595E0,2.72809E2,1.1347731E2,2.2841175E0,8.761172E0,8.406709E0,1.6425661E1,1.1916572E0,2.5529742E0,1.1557853E0,1.1598083E2,1.5682816E2,1.078855E2,5.5918117E0,4.980404E0,3.4263043E0],"tree_param":{"num_deleted":"0","num_feature":"25","num_nodes":"27","size_leaf_vector":"1"}},{"base_weights":[-1.0508007E-2,-1.08855866E-1,5.8933115E-1,6.52472E-1,-1.0686334E-1,5.163889E-1,9.738827E-1,5.4824626E-1,-1.7947878E-1,9.9632114E-1,2.5015423E-2,6.3420695E-1,1.4165439E-1,1.0126551E0,3.6518026E-2,6.629748E-2,-1.3552378E-1,7.605625E-2,-6.267502E-2,8.857403E-2,1.10063866E-1],"categories":[],"categories_nodes":[],"categories_segments":[],"categories_sizes":[],"default_left":[0,0,0,0,0,0,0,0,0,0,0,0,0,0,0,0,0,0,0,0,0],"id":22,"left_children":[1,-1,3,5,-1,7,9,11,-1,13,-1,15,17,19,-1,-1,-1,-1,-1,-1,-1],"loss_changes":[3.86002E2,0E0,4.084767E1,1.5684082E1,0E0,2.0284157E1,1.5201187E0,8.974068E0,0E0,7.1617126E-1,0E0,1.3133881E1,2.2612883E1,1.6545105E-1,0E0,0E0,0E0,0E0,0E0,0E0,0E0],"parents":[2147483647,0,0,2,2,3,3,5,5,6,6,7,7,9,9,11,11,12,12,13,13],"right_children":[2,-1,4,6,-1,8,10,12,-1,14,-1,16,18,20,-1,-1,-1,-1,-1,-1,-1],"split_conditions":[1.5174211E0,-1.08855866E-1,1.7215693E0,3.4274106E0,-1.0686334E-1,1.8186854E0,1.6389399E0,2.236068E0,-1.7947878E-1,1.5984379E0,2.5015423E-2,1.8619523E0,-5.5911934E-1,3.904908E0,3.6518026E-2,6.629748E-2,-1.3552378E-1,7.605625E-2,-6.267502E-2,8.857403E-2,1.10063866E-1],"split_indices":[17,0,14,17,0,10,7,21,0,3,0,4,6,17,0,0,0,0,0,0,0],"split_type":[0,0,0,0,0,0,0,0,0,0,0,0,0,0,0,0,0,0,0,0,0],"sum_hessian":[5.949271E2,2.1239288E2,3.8253427E2,3.6908475E2,1.3449525E1,2.6113046E2,1.0795428E2,2.5833237E2,2.7980866E0,1.0434258E2,3.6116884E0,2.1278589E2,4.5546486E1,1.0112108E2,3.2215114E0,2.1041006E2,2.3758252E0,2.5232937E1,2.031355E1,4.5932E1,5.5189075E1],"tree_param":{"num_deleted":"0","num_feature":"25","num_nodes":"21","size_leaf_vector":"1"}},{"base_weights":[4.494457E-2,-1.07846335E-1,6.169801E-1,6.7611873E-1,6.356475E-2,7.1927035E-1,9.146418E-2,-4.159123E-1,9.476584E-2,7.9404247E-1,4.4891384E-1,-5.159978E-1,7.2100663E-1,-1.3934902E0,5.931277E-1,8.22999E-1,3.663337E-1,-2.3262568E-1,5.216742E-1,-1.2504515E-1,4.524891E-1,-6.538918E-2,1.0569685E-1,-2.2230325E-3,-1.8457453E-1,7.571439E-1,-4.8553264E-3,8.6138904E-2,5.279119E-2,8.840687E-2,-6.542324E-2,2.2859713E-2,7.875966E-2,8.737035E-2,-8.358133E-3,7.902097E-2,-1.12612836E-1,3.421153E-2,8.586287E-2],"categories":[],"categories_nodes":[],"categories_segments":[],"categories_sizes":[],"default_left":[0,0,0,0,0,0,0,0,0,0,0,0,0,0,0,0,0,0,0,0,0,0,0,0,0,0,0,0,0,0,0,0,0,0,0,0,0,0,0],"id":23,"left_children":[1,-1,3,5,7,9,11,13,-1,15,17,19,21,23,25,27,29,-1,31,-1,33,35,-1,-1,-1,37,-1,-1,-1,-1,-1,-1,-1,-1,-1,-1,-1,-1,-1],"loss_changes":[3.773126E2,0E0,1.2688019E1,8.797882E0,1.6781645E1,6.254669E0,1.0045103E1,2.623653E1,0E0,2.8552399E0,1.5984879E1,1.0136963E1,3.4610205E0,8.258259E0,1.444685E0,2.240509E0,1.0070295E1,0E0,5.439228E0,0E0,1.5492039E0,5.2323585E0,0E0,0E0,0E0,1.5753269E-1,0E0,0E0,0E0,0E0,0E0,0E0,0E0,0E0,0E0,0E0,0E0,0E0,0E0],"parents":[2147483647,0,0,2,2,3,3,4,4,5,5,6,6,7,7,9,9,10,10,11,11,12,12,13,13,14,14,15,15,16,16,18,18,20,20,21,21,25,25],"right_children":[2,-1,4,6,8,10,12,14,-1,16,18,20,22,24,26,28,30,-1,32,-1,34,36,-1,-1,-1,38,-1,-1,-1,-1,-1,-1,-1,-1,-1,-1,-1,-1,-1],"split_conditions":[1.5174211E0,-1.07846335E-1,2.0466397E0,2.0466397E0,3.904908E0,9.8114634E-1,1.7163758E0,1.4069456E0,9.476584E-2,2.0466397E0,1.0717863E0,2.236068E0,1.0254688E0,-8.5582316E-1,3.6088052E-1,2.236068E0,-1.1496506E-2,-2.3262568E-1,1.4187297E0,-1.2504515E-1,-5.5328095E-1,-1.3005902E0,1.0569685E-1,-2.2230325E-3,-1.8457453E-1,-1.5379994E-1,-4.8553264E-3,8.6138904E-2,5.279119E-2,8.840687E-2,-6.542324E-2,2.2859713E-2,7.875966E-2,8.737035E-2,-8.358133E-3,7.902097E-2,-1.12612836E-1,3.421153E-2,8.586287E-2],"split_indices":[17,0,0,2,17,5,15,16,0,1,5,24,11,5,11,19,16,0,4,0,9,11,0,0,0,4,0,0,0,0,0,0,0,0,0,0,0,0,0],"split_type":[0,0,0,0,0,0,0,0,0,0,0,0,0,0,0,0,0,0,0,0,0,0,0,0,0,0,0,0,0,0,0,0,0,0,0,0,0,0,0],"sum_hessian":[5.8510345E2,1.9711275E2,3.879907E2,3.5033203E2,3.7658646E1,3.260379E2,2.4294142E1,2.4759956E1,1.2898689E1,2.5388443E2,7.215347E1,1.2455686E1,1.1838456E1,1.2382521E1,1.2377437E1,2.3692035E2,1.6964077E1,1.0521383E0,7.110133E1,6.9181533E0,5.5375323E0,3.7847488E0,8.053708E0,3.3312273E0,9.051293E0,9.714447E0,2.6629891E0,2.0794781E2,2.8972544E1,1.1343332E1,5.6207457E0,3.4708363E1,3.6392975E1,2.748267E0,2.7892654E0,2.2361195E0,1.5486292E0,2.7675347E0,6.9469123E0],"tree_param":{"num_deleted":"0","num_feature":"25","num_nodes":"39","size_leaf_vector":"1"}},{"base_weights":[5.072263E-2,-1.06989704E-1,5.8152765E-1,4.707986E-1,8.873685E-1,8.3160806E-1,3.8158023E-1,9.142775E-1,1.491421E-1,9.2523193E-1,3.431841E-1,6.0072356E-1,2.5471225E-1,9.47551E-1,4.2191127E-1,-1.1133398E-1,8.478938E-2,7.1408944E-3,9.6188045E-1,-1.5065505E-1,7.557007E-1,7.360617E-1,1.7307775E-2,3.1998324E-1,-1.073296E0,7.4829584E-1,1.0065009E-1,-8.878261E-2,9.4740786E-2,9.831655E-2,3.5937175E-2,1.7047836E-2,9.1774225E-2,-8.0319E-3,8.02002E-2,-2.7546677E-1,5.5410888E-2,4.1247804E-2,-3.1997256E-2,-2.2125077E-1,4.2997755E-2,8.911782E-2,-5.1223338E-3],"categories":[],"categories_nodes":[],"categories_segments":[],"categories_sizes":[],"default_left":[0,0,0,0,0,0,0,0,0,0,0,0,0,0,0,0,0,0,0,0,0,0,0,0,0,0,0,0,0,0,0,0,0,0,0,0,0,0,0,0,0,0,0],"id":24,"left_children":[1,-1,3,5,7,9,11,13,15,17,19,21,23,25,27,-1,-1,-1,29,-1,31,33,35,37,39,41,-1,-1,-1,-1,-1,-1,-1,-1,-1,-1,-1,-1,-1,-1,-1,-1,-1],"loss_changes":[3.3162555E2,0E0,1.239196E1,8.690945E0,1.838501E0,2.180626E0,6.13612E0,1.1684189E0,5.0823984E0,1.3473587E0,9.056688E0,6.4780655E0,1.2912424E1,2.90596E-1,6.252257E0,0E0,0E0,0E0,2.021141E-1,0E0,7.1131754E-1,3.6551628E0,2.6082808E1,8.358634E0,1.2977958E1,2.8085384E0,0E0,0E0,0E0,0E0,0E0,0E0,0E0,0E0,0E0,0E0,0E0,0E0,0E0,0E0,0E0,0E0,0E0],"parents":[2147483647,0,0,2,2,3,3,4,4,5,5,6,6,7,7,8,8,9,9,10,10,11,11,12,12,13,13,14,14,18,18,20,20,21,21,22,22,23,23,24,24,25,25],"right_children":[2,-1,4,6,8,10,12,14,16,18,20,22,24,26,28,-1,-1,-1,30,-1,32,34,36,38,40,42,-1,-1,-1,-1,-1,-1,-1,-1,-1,-1,-1,-1,-1,-1,-1,-1,-1],"split_conditions":[1.5174211E0,-1.06989704E-1,3.4274106E0,1.7561698E0,1.770197E0,-4.3480296E-2,-5.835084E-1,2.0466397E0,3.166935E0,-8.338127E-1,-1.1496506E-2,2.236068E0,1.6413294E0,-5.1608413E-1,2.236068E0,-1.1133398E-1,8.478938E-2,7.1408944E-3,2.4225883E0,-1.5065505E-1,-1.7325477E-1,-7.1521956E-1,-1.2951377E-1,2.8944656E-1,3.984727E0,-2.8556183E-1,1.0065009E-1,-8.878261E-2,9.4740786E-2,9.831655E-2,3.5937175E-2,1.7047836E-2,9.1774225E-2,-8.0319E-3,8.02002E-2,-2.7546677E-1,5.5410888E-2,4.1247804E-2,-3.1997256E-2,-2.2125077E-1,4.2997755E-2,8.911782E-2,-5.1223338E-3],"split_indices":[17,0,17,17,7,10,10,2,8,4,16,19,9,9,22,0,0,0,8,0,7,7,4,6,9,10,0,0,0,0,0,0,0,0,0,0,0,0,0,0,0,0,0],"split_type":[0,0,0,0,0,0,0,0,0,0,0,0,0,0,0,0,0,0,0,0,0,0,0,0,0,0,0,0,0,0,0,0,0,0,0,0,0,0,0,0,0,0,0],"sum_hessian":[5.554667E2,1.7821304E2,3.7725363E2,2.7883966E2,9.841397E1,5.363053E1,2.2520912E2,9.472276E1,3.6912103E0,4.4253456E1,9.377075E0,8.120535E1,1.4400377E2,8.7860756E1,6.8620048E0,1.1037191E0,2.587491E0,1.9426601E0,4.23108E1,1.2262853E0,8.15079E0,6.570238E1,1.5502979E1,1.3798111E2,6.022657E0,2.318554E1,6.467522E1,1.7674206E0,5.094584E0,4.0256844E1,2.0539544E0,2.2124538E0,5.9383364E0,4.893976E0,6.08084E1,1.8448358E0,1.3658143E1,1.2086725E2,1.7113863E1,3.1578102E0,2.864847E0,1.9572998E1,3.6125412E0],"tree_param":{"num_deleted":"0","num_feature":"25","num_nodes":"43","size_leaf_vector":"1"}},{"base_weights":[2.3806373E-2,-1.061549E-1,5.4317707E-1,6.0915905E-1,-1.0648947E-1,4.842242E-1,9.4842404E-1,8.801342E-1,3.766501E-1,1.0190831E0,6.4713484E-1,9.512889E-1,-5.501351E-2,4.3748897E-1,-1.3114363E-1,1.0415362E0,5.130445E-1,-2.712441E-2,9.572469E-2,2.6575936E-2,9.771776E-2,8.252759E-2,-1.4387429E-1,5.0590135E-2,-6.2212307E-2,-8.651639E-2,5.5471748E-2,1.0674411E-1,6.35519E-2,7.748046E-3,7.583405E-2,-7.479934E-2,4.9060635E-2],"categories":[],"categories_nodes":[],"categories_segments":[],"categories_sizes":[],"default_left":[0,0,0,0,0,0,0,0,0,0,0,0,0,0,0,0,0,0,0,0,0,0,0,0,0,0,0,0,0,0,0,0,0],"id":25,"left_children":[1,-1,3,5,-1,7,9,11,13,15,17,19,21,23,25,27,29,31,-1,-1,-1,-1,-1,-1,-1,-1,-1,-1,-1,-1,-1,-1,-1],"loss_changes":[2.8851578E2,0E0,3.7375565E1,1.3660988E1,0E0,1.0125E1,1.2270584E0,3.4930649E0,6.0757065E0,2.6148224E-1,4.11889E0,5.940933E-1,6.792518E0,1.2942326E1,1.1360293E1,1.6799927E-2,4.69741E-1,3.0313873E0,0E0,0E0,0E0,0E0,0E0,0E0,0E0,0E0,0E0,0E0,0E0,0E0,0E0,0E0,0E0],"parents":[2147483647,0,0,2,2,3,3,5,5,6,6,7,7,8,8,9,9,10,10,11,11,12,12,13,13,14,14,15,15,16,16,17,17],"right_children":[2,-1,4,6,-1,8,10,12,14,16,18,20,22,24,26,28,30,32,-1,-1,-1,-1,-1,-1,-1,-1,-1,-1,-1,-1,-1,-1,-1],"split_conditions":[1.5174211E0,-1.061549E-1,1.7215693E0,3.4274106E0,-1.0648947E-1,1.7561698E0,1.7163758E0,9.569757E-1,2.0466397E0,1.9017068E0,8.053689E-1,-8.2560986E-1,4.3933707E-1,1.5189433E0,1.1958028E0,2.0466397E0,2.0466397E0,-1.3938197E-1,9.572469E-2,2.6575936E-2,9.771776E-2,8.252759E-2,-1.4387429E-1,5.0590135E-2,-6.2212307E-2,-8.651639E-2,5.5471748E-2,1.0674411E-1,6.35519E-2,7.748046E-3,7.583405E-2,-7.479934E-2,4.9060635E-2],"split_indices":[17,0,14,17,0,17,15,5,1,9,3,5,3,5,3,2,2,7,0,0,0,0,0,0,0,0,0,0,0,0,0,0,0],"split_type":[0,0,0,0,0,0,0,0,0,0,0,0,0,0,0,0,0,0,0,0,0,0,0,0,0,0,0,0,0,0,0,0,0],"sum_hessian":[5.0980054E2,1.6465944E2,3.451411E2,3.3213425E2,1.300686E1,2.4451753E2,8.761671E1,5.0709034E1,1.938085E2,6.904232E1,1.8574389E1,4.7107407E1,3.601626E0,1.7319627E2,2.0612228E1,6.509579E1,3.9465287E0,6.139075E0,1.2435313E1,2.1242085E0,4.49832E1,2.4479165E0,1.1537094E0,1.6318314E2,1.0013134E1,9.830275E0,1.0781954E1,5.966027E1,5.435519E0,1.8959024E0,2.0506263E0,2.3802083E0,3.7588663E0],"tree_param":{"num_deleted":"0","num_feature":"25","num_nodes":"33","size_leaf_vector":"1"}},{"base_weights":[6.9805935E-2,1.5407155E-1,-1.0365059E-1,-1.0859038E-1,1.6573119E-1,2.0564428E-1,-1.5172036E-1,-9.197709E-3,2.8450862E-1,-1.6097896E-1,-3.5746064E-2,4.4490706E-2,-1.7494745E0,9.6106374E-1,2.5363633E-1,8.3629745E-1,-2.3011053E-1,1.3106723E-2,-9.429336E-2,-6.509549E-2,-2.1738394E-1,2.7874673E-2,1.1015975E-1,2.9094521E-2,-1.7033158E-2,9.851461E-2,3.6254507E-2,-7.1006E-2,1.831354E-2],"categories":[],"categories_nodes":[],"categories_segments":[],"categories_sizes":[],"default_left":[0,0,0,0,0,0,0,0,0,0,0,0,0,0,0,0,0,0,0,0,0,0,0,0,0,0,0,0,0],"id":26,"left_children":[1,3,-1,-1,5,7,9,11,13,-1,15,17,19,21,23,25,27,-1,-1,-1,-1,-1,-1,-1,-1,-1,-1,-1,-1],"loss_changes":[4.7060715E1,6.951394E0,0E0,0E0,5.9212875E0,7.0065346E0,8.819322E0,1.0539024E1,6.0725517E0,0E0,8.607851E0,9.492136E0,1.5854168E-1,9.240055E-1,4.6457043E0,2.9618835E-1,8.338232E0,0E0,0E0,0E0,0E0,0E0,0E0,0E0,0E0,0E0,0E0,0E0,0E0],"parents":[2147483647,0,0,1,1,4,4,5,5,6,6,7,7,8,8,10,10,11,11,12,12,13,13,14,14,15,15,16,16],"right_children":[2,4,-1,-1,6,8,10,12,14,-1,16,18,20,22,24,26,28,-1,-1,-1,-1,-1,-1,-1,-1,-1,-1,-1,-1],"split_conditions":[1.7215693E0,-1.4963454E0,-1.0365059E-1,-1.0859038E-1,2.0466397E0,-6.178352E-1,-7.548827E-1,7.105917E-1,-6.0513294E-1,-1.6097896E-1,-7.2892725E-1,-6.8558085E-1,2.236068E0,1.1837718E0,2.0466397E0,-6.9404906E-1,6.977245E-1,1.3106723E-2,-9.429336E-2,-6.509549E-2,-2.1738394E-1,2.7874673E-2,1.1015975E-1,2.9094521E-2,-1.7033158E-2,9.851461E-2,3.6254507E-2,-7.1006E-2,1.831354E-2],"split_indices":[14,5,0,0,0,7,4,8,7,0,5,7,21,13,2,7,16,0,0,0,0,0,0,0,0,0,0,0,0],"split_type":[0,0,0,0,0,0,0,0,0,0,0,0,0,0,0,0,0,0,0,0,0,0,0,0,0,0,0,0,0],"sum_hessian":[5.0210004E2,4.6736267E2,3.473737E1,3.4954553E0,4.6386722E2,4.12372E2,5.1495216E1,1.1096495E2,3.0140704E2,2.8450966E0,4.865012E1,1.0858935E2,2.375601E0,1.1838575E1,2.8956848E2,8.265056E0,4.0385063E1,1.0063318E2,7.956168E0,1.3680888E0,1.0075123E0,2.5314417E0,9.307134E0,2.6643604E2,2.3132435E1,5.4677005E0,2.797355E0,1.8352255E1,2.2032808E1],"tree_param":{"num_deleted":"0","num_feature":"25","num_nodes":"29","size_leaf_vector":"1"}},{"base_weights":[-1.080438E-3,-1.05465665E-1,4.8046577E-1,5.3661555E-1,-1.0290217E-1,4.1798356E-1,8.766889E-1,4.9529868E-1,-3.3075792E-1,6.858422E-1,1.006391E0,8.67472E-1,3.8155767E-1,1.9612601E-1,-1.6319144E-1,7.6178193E-1,-4.6873797E-2,1.0345936E-1,4.4158537E-2,9.43935E-2,2.3775926E-2,4.557185E-2,-1.7112004E-2,-9.6333325E-2,9.266906E-2,1.8529575E-2,8.728161E-2],"categories":[],"categories_nodes":[],"categories_segments":[],"categories_sizes":[],"default_left":[0,0,0,0,0,0,0,0,0,0,0,0,0,0,0,0,0,0,0,0,0,0,0,0,0,0,0],"id":27,"left_children":[1,-1,3,5,-1,7,9,11,13,15,17,19,21,23,-1,25,-1,-1,-1,-1,-1,-1,-1,-1,-1,-1,-1],"loss_changes":[2.4240433E2,0E0,2.834542E1,1.2414886E1,0E0,1.3871273E1,1.3153763E0,8.77137E0,1.5924667E1,3.5068283E0,2.774582E-1,2.161255E0,6.9014606E0,1.5372433E1,0E0,2.0202217E0,0E0,0E0,0E0,0E0,0E0,0E0,0E0,0E0,0E0,0E0,0E0],"parents":[2147483647,0,0,2,2,3,3,5,5,6,6,7,7,8,8,9,9,10,10,11,11,12,12,13,13,15,15],"right_children":[2,-1,4,6,-1,8,10,12,14,16,18,20,22,24,-1,26,-1,-1,-1,-1,-1,-1,-1,-1,-1,-1,-1],"split_conditions":[1.5174211E0,-1.05465665E-1,1.7215693E0,3.4274106E0,-1.0290217E-1,2.0466397E0,3.904908E0,1.7561698E0,-3.5010198E-1,-7.9297006E-1,1.2705733E0,9.569757E-1,9.868885E-1,-4.9897125E-1,-1.6319144E-1,-5.346826E-1,-4.6873797E-2,1.0345936E-1,4.4158537E-2,9.43935E-2,2.3775926E-2,4.557185E-2,-1.7112004E-2,-9.6333325E-2,9.266906E-2,1.8529575E-2,8.728161E-2],"split_indices":[17,0,14,17,0,0,17,17,8,3,7,5,7,8,0,9,0,0,0,0,0,0,0,0,0,0,0],"split_type":[0,0,0,0,0,0,0,0,0,0,0,0,0,0,0,0,0,0,0,0,0,0,0,0,0,0,0],"sum_hessian":[4.7579056E2,1.4887544E2,3.269151E2,3.1581207E2,1.11030445E1,2.3578824E2,8.002383E1,2.1402634E2,2.176189E1,3.492389E1,4.509994E1,4.854732E1,1.6547902E2,1.6094095E1,5.6677957E0,3.3087826E1,1.8360624E0,4.2162853E1,2.937089E0,4.2845776E1,5.7015457E0,1.46056E2,1.9423027E1,6.0978103E0,9.9962845E0,5.774677E0,2.7313148E1],"tree_param":{"num_deleted":"0","num_feature":"25","num_nodes":"27","size_leaf_vector":"1"}},{"base_weights":[5.2727327E-2,-1.04746155E-1,5.005253E-1,5.526029E-1,-1.01047836E-1,4.447378E-1,8.704274E-1,-2.0029826E-1,4.6681404E-1,9.431684E-1,5.84539E-1,9.0435946E-1,3.3576658E-1,9.626004E-1,1.923612E-2,7.316969E-1,-4.139964E-2,1.0094146E-1,3.4412254E-2,6.42685E-2,1.5441813E-2,7.5785264E-2,1.05049215E-1,6.3558556E-3,8.23303E-2],"categories":[],"categories_nodes":[],"categories_segments":[],"categories_sizes":[],"default_left":[0,0,0,0,0,0,0,0,0,0,0,0,0,0,0,0,0,0,0,0,0,0,0,0,0],"id":28,"left_children":[1,-1,3,5,-1,7,9,-1,11,13,15,17,19,21,-1,23,-1,-1,-1,-1,-1,-1,-1,-1,-1],"loss_changes":[2.2697768E2,0E0,2.6318306E1,1.0483826E1,0E0,1.3838734E1,1.0978928E0,0E0,1.3312847E1,7.1341705E-1,3.053012E0,2.8391685E0,1.0160486E1,2.797737E-1,0E0,9.681463E-1,0E0,0E0,0E0,0E0,0E0,0E0,0E0,0E0,0E0],"parents":[2147483647,0,0,2,2,3,3,5,5,6,6,8,8,9,9,10,10,11,11,12,12,13,13,15,15],"right_children":[2,-1,4,6,-1,8,10,-1,12,14,16,18,20,22,-1,24,-1,-1,-1,-1,-1,-1,-1,-1,-1],"split_conditions":[1.5174211E0,-1.04746155E-1,1.7215693E0,3.4274106E0,-1.01047836E-1,-8.6417043E-1,1.7163758E0,-2.0029826E-1,1.7561698E0,1.9117937E0,9.766279E-2,3.8481784E-1,-5.835084E-1,-8.376952E-1,1.923612E-2,-9.6131516E-1,-4.139964E-2,1.0094146E-1,3.4412254E-2,6.42685E-2,1.5441813E-2,7.5785264E-2,1.05049215E-1,6.3558556E-3,8.23303E-2],"split_indices":[17,0,14,17,0,4,15,0,17,10,9,10,10,5,0,4,0,0,0,0,0,0,0,0,0],"split_type":[0,0,0,0,0,0,0,0,0,0,0,0,0,0,0,0,0,0,0,0,0,0,0,0,0],"sum_hessian":[4.5865234E2,1.3229048E2,3.2636185E2,3.1610153E2,1.0260334E1,2.3779622E2,7.8305305E1,1.3234874E0,2.3647273E2,6.0589855E1,1.7715448E1,5.314143E1,1.833313E2,5.8786285E1,1.8035673E0,1.5672904E1,2.0425446E0,4.4074806E1,9.066626E0,6.7146706E1,1.1618459E2,2.0546005E1,3.824028E1,2.093991E0,1.3578914E1],"tree_param":{"num_deleted":"0","num_feature":"25","num_nodes":"25","size_leaf_vector":"1"}},{"base_weights":[2.673137E-2,-1.04164794E-1,4.6919453E-1,5.214344E-1,-9.9384926E-2,7.7547E-1,4.1744643E-1,8.1478024E-1,-8.582806E-2,3.169675E-1,9.5310414E-1,8.447025E-1,-2.3312649E-2,4.0502274E-1,-4.1249096E-1,1.0054901E0,1.3263951E-2,9.5751986E-2,5.9774E-2,4.9940944E-2,1.2474819E-2,-1.2118232E-1,4.6481296E-2,5.5136617E-2,1.0487826E-1],"categories":[],"categories_nodes":[],"categories_segments":[],"categories_sizes":[],"default_left":[0,0,0,0,0,0,0,0,0,0,0,0,0,0,0,0,0,0,0,0,0,0,0,0,0],"id":29,"left_children":[1,-1,3,5,-1,7,9,11,-1,13,15,17,-1,19,21,23,-1,-1,-1,-1,-1,-1,-1,-1,-1],"loss_changes":[1.9801003E2,0E0,2.3153702E1,7.247505E0,0E0,5.970707E0,1.0759926E1,2.7261887E0,0E0,1.13797245E1,1.24053E0,1.6187134E0,0E0,4.071575E0,1.409601E1,9.475708E-3,0E0,0E0,0E0,0E0,0E0,0E0,0E0,0E0,0E0],"parents":[2147483647,0,0,2,2,3,3,5,5,6,6,7,7,9,9,10,10,11,11,13,13,14,14,15,15],"right_children":[2,-1,4,6,-1,8,10,12,-1,14,16,18,-1,20,22,24,-1,-1,-1,-1,-1,-1,-1,-1,-1],"split_conditions":[1.5174211E0,-1.04164794E-1,1.7215693E0,-6.160547E-1,-9.9384926E-2,2.0466397E0,3.904908E0,2.0466397E0,-8.582806E-2,2.0466397E0,1.5008293E0,4.937982E-1,-2.3312649E-2,7.90644E-2,1.4069456E0,-7.2071755E-1,1.3263951E-2,9.5751986E-2,5.9774E-2,4.9940944E-2,1.2474819E-2,-1.2118232E-1,4.6481296E-2,5.5136617E-2,1.0487826E-1],"split_indices":[17,0,14,3,0,2,17,1,0,0,3,11,0,9,16,16,0,0,0,0,0,0,0,0,0],"split_type":[0,0,0,0,0,0,0,0,0,0,0,0,0,0,0,0,0,0,0,0,0,0,0,0,0],"sum_hessian":[4.1684128E2,1.2167895E2,2.9516232E2,2.856079E2,9.554413E0,8.107934E1,2.0452858E2,7.9663795E1,1.4155358E0,1.7356322E2,3.0965353E1,7.764074E1,2.023061E0,1.5526541E2,1.829782E1,2.8894922E1,2.0704293E0,5.13197E1,2.6321041E1,1.1556521E2,3.970019E1,9.37486E0,8.922959E0,3.7103553E0,2.5184568E1],"tree_param":{"num_deleted":"0","num_feature":"25","num_nodes":"25","size_leaf_vector":"1"}},{"base_weights":[5.6997042E-2,-1.03593804E-1,4.5098284E-1,7.7214205E-1,3.2711428E-1,8.035979E-1,-7.765355E-2,-2.2674747E-1,3.5852918E-1,8.930491E-1,6.469966E-1,2.5435832E-1,8.810576E-1,9.29251E-1,-3.7959557E-2,-7.5504534E-2,7.3173696E-1,7.015589E-1,1.6517408E-1,9.259929E-1,1.4208249E-2,9.548101E-2,-4.0900786E-3,2.2542892E-2,8.5812174E-2,8.577358E-2,5.4755188E-3,-7.883539E-2,2.4976978E-2,3.386071E-2,9.936441E-2],"categories":[],"categories_nodes":[],"categories_segments":[],"categories_sizes":[],"default_left":[0,0,0,0,0,0,0,0,0,0,0,0,0,0,0,0,0,0,0,0,0,0,0,0,0,0,0,0,0,0,0],"id":30,"left_children":[1,-1,3,5,7,9,-1,-1,11,13,15,17,19,21,-1,-1,23,25,27,29,-1,-1,-1,-1,-1,-1,-1,-1,-1,-1,-1],"loss_changes":[1.8202737E2,0E0,1.2104294E1,4.7999916E0,1.9225481E1,6.0599136E-1,0E0,0E0,1.197184E1,2.7095833E0,4.6338005E0,7.390951E0,1.0916538E0,1.2796211E0,0E0,0E0,1.9119129E0,3.0832367E0,1.2960661E1,1.0362492E0,0E0,0E0,0E0,0E0,0E0,0E0,0E0,0E0,0E0,0E0,0E0],"parents":[2147483647,0,0,2,2,3,3,4,4,5,5,8,8,9,9,10,10,11,11,12,12,13,13,16,16,17,17,18,18,19,19],"right_children":[2,-1,4,6,8,10,-1,-1,12,14,16,18,20,22,-1,-1,24,26,28,30,-1,-1,-1,-1,-1,-1,-1,-1,-1,-1,-1],"split_conditions":[1.5174211E0,-1.03593804E-1,-6.160547E-1,2.0466397E0,-5.3630716E-1,-1.3938197E-1,-7.765355E-2,-2.2674747E-1,3.904908E0,7.858033E-1,-1.659308E-2,-1.0226738E0,1.7509512E0,-4.5737708E-1,-3.7959557E-2,-7.5504534E-2,-2.0862474E-1,-3.0086017E-1,-8.083697E-1,-7.2071755E-1,1.4208249E-2,9.548101E-2,-4.0900786E-3,2.2542892E-2,8.5812174E-2,8.577358E-2,5.4755188E-3,-7.883539E-2,2.4976978E-2,3.386071E-2,9.936441E-2],"split_indices":[17,0,3,2,4,7,0,0,17,9,7,12,3,4,0,0,6,6,7,16,0,0,0,0,0,0,0,0,0,0,0],"split_type":[0,0,0,0,0,0,0,0,0,0,0,0,0,0,0,0,0,0,0,0,0,0,0,0,0,0,0,0,0,0,0],"sum_hessian":[4.2064377E2,1.1102522E2,3.0961856E2,8.47222E1,2.2489635E2,8.350715E1,1.2150456E0,1.8389293E0,2.2305742E2,5.0155495E1,3.3351654E1,1.8722014E2,3.583728E1,4.9030586E1,1.1249084E0,1.450062E0,3.190159E1,2.9987265E1,1.5723288E2,3.3544445E1,2.2928345E0,4.7787422E1,1.2431642E0,6.9286213E0,2.4972971E1,2.389216E1,6.0951037E0,1.2134841E1,1.4509804E2,4.0846224E0,2.9459822E1],"tree_param":{"num_deleted":"0","num_feature":"25","num_nodes":"31","size_leaf_vector":"1"}},{"base_weights":[-6.740568E-3,5.985085E-2,-1.00316085E-1,1.0301664E-1,-3.7084275E-1,1.6658084E-1,-4.6724173E-1,-7.402029E-2,-1.3641867E-1,1.02191426E-1,6.146814E-1,-7.4959755E-1,7.6368116E-2,3.3379406E-1,-7.661909E-1,1.5996069E-1,-4.9148542E-1,2.27341E-1,8.161341E-1,-1.0196548E0,5.714004E-1,-2.4672571E-1,8.813139E-1,-1.3852653E-1,-1.5830116E-1,6.1580446E-3,4.18209E-2,-1.9592045E-1,5.6541706E-3,5.0403714E-2,-1.6104086E-1,1.0093369E-1,2.6065633E-2,-3.145721E-2,-1.682524E-1,2.4536049E-2,7.31655E-2,4.805991E-2,-1.4550637E-1,3.8245287E-2,9.887122E-2,-1.3098991E-1,6.102975E-2],"categories":[],"categories_nodes":[],"categories_segments":[],"categories_sizes":[],"default_left":[0,0,0,0,0,0,0,0,0,0,0,0,0,0,0,0,0,0,0,0,0,0,0,0,0,0,0,0,0,0,0,0,0,0,0,0,0,0,0,0,0,0,0],"id":31,"left_children":[1,3,-1,5,7,9,11,13,-1,15,17,19,-1,21,23,25,27,29,31,33,35,37,39,41,-1,-1,-1,-1,-1,-1,-1,-1,-1,-1,-1,-1,-1,-1,-1,-1,-1,-1,-1],"loss_changes":[2.5441189E1,6.721713E0,0E0,1.1950239E1,9.618807E0,8.460988E0,1.2080137E1,7.7187853E0,0E0,8.978666E0,2.6951647E0,1.03706045E1,0E0,5.7267365E0,4.961679E0,6.001863E0,1.8818382E1,7.939467E0,2.3018875E0,1.0285387E1,9.7290635E-2,8.779795E0,1.1149502E-1,6.773093E0,0E0,0E0,0E0,0E0,0E0,0E0,0E0,0E0,0E0,0E0,0E0,0E0,0E0,0E0,0E0,0E0,0E0,0E0,0E0],"parents":[2147483647,0,0,1,1,3,3,4,4,5,5,6,6,7,7,9,9,10,10,11,11,13,13,14,14,15,15,16,16,17,17,18,18,19,19,20,20,21,21,22,22,23,23],"right_children":[2,4,-1,6,8,10,12,14,-1,16,18,20,-1,22,24,26,28,30,32,34,36,38,40,42,-1,-1,-1,-1,-1,-1,-1,-1,-1,-1,-1,-1,-1,-1,-1,-1,-1,-1,-1],"split_conditions":[1.7215693E0,1.470602E0,-1.00316085E-1,2.0466397E0,6.977245E-1,1.3666177E0,1.3134928E0,1.5008293E0,-1.3641867E-1,9.8114634E-1,-2.2969687E-1,1.6360837E0,7.6368116E-2,2.0466397E0,-1.813131E-1,3.9424443E-1,1.1030095E0,-5.090217E-1,1.519131E0,-5.222252E-1,2.4410603E0,1.1042949E0,1.3155134E0,-4.044938E-1,-1.5830116E-1,6.1580446E-3,4.18209E-2,-1.9592045E-1,5.6541706E-3,5.0403714E-2,-1.6104086E-1,1.0093369E-1,2.6065633E-2,-3.145721E-2,-1.682524E-1,2.4536049E-2,7.31655E-2,4.805991E-2,-1.4550637E-1,3.8245287E-2,9.887122E-2,-1.3098991E-1,6.102975E-2],"split_indices":[14,5,0,1,16,3,5,3,0,5,10,6,0,1,9,8,4,10,3,6,9,3,4,9,0,0,0,0,0,0,0,0,0,0,0,0,0,0,0,0,0,0,0],"split_type":[0,0,0,0,0,0,0,0,0,0,0,0,0,0,0,0,0,0,0,0,0,0,0,0,0,0,0,0,0,0,0,0,0,0,0,0,0,0,0,0,0,0,0],"sum_hessian":[3.8151675E2,3.5849802E2,2.3018723E1,3.2653247E2,3.196554E1,2.944224E2,3.2110092E1,2.5438686E1,6.526853E0,2.5850482E2,3.591757E1,2.6436884E1,5.673208E0,1.6333212E1,9.105475E0,2.3624677E2,2.2258045E1,1.3017278E1,2.2900291E1,2.2139025E1,4.297858E0,8.19435E0,8.138862E0,5.8102975E0,3.2951775E0,1.7197209E2,6.427468E1,5.351286E0,1.690676E1,1.19446E1,1.0726776E0,1.6384481E1,6.51581E0,1.1442448E1,1.0696577E1,2.2504194E0,2.0474389E0,5.4912887E0,2.7030616E0,2.2497823E0,5.8890796E0,1.9736601E0,3.8366375E0],"tree_param":{"num_deleted":"0","num_feature":"25","num_nodes":"43","size_leaf_vector":"1"}},{"base_weights":[7.8417115E-2,-1.03015125E-1,4.522206E-1,4.94019E-1,-9.601726E-2,6.104343E-1,2.6278844E-1,6.7936325E-1,-5.0572205E-1,3.4233496E-1,-1.6889541E-1,7.1202886E-1,1.3923015E-1,2.6922932E-1,-1.4218403E0,-1.0220891E0,4.3135092E-1,7.561736E-2,4.456996E-2,-1.1342894E-1,5.635762E-2,7.415684E-2,-1.20329104E-1,-2.0508735E-1,5.568896E-2,-2.4555098E-1,8.1916325E-2,-2.5057862E-2,5.1552035E-2],"categories":[],"categories_nodes":[],"categories_segments":[],"categories_sizes":[],"default_left":[0,0,0,0,0,0,0,0,0,0,0,0,0,0,0,0,0,0,0,0,0,0,0,0,0,0,0,0,0],"id":32,"left_children":[1,-1,3,5,-1,7,9,11,13,15,-1,17,19,21,23,25,27,-1,-1,-1,-1,-1,-1,-1,-1,-1,-1,-1,-1],"loss_changes":[1.6262448E2,0E0,1.7791832E1,7.526718E0,0E0,1.489856E1,1.5697351E1,3.0521774E0,8.601806E0,1.1906409E1,0E0,1.6402435E0,6.815484E0,5.8392477E0,7.943651E0,1.8054052E1,5.256092E0,0E0,0E0,0E0,0E0,0E0,0E0,0E0,0E0,0E0,0E0,0E0,0E0],"parents":[2147483647,0,0,2,2,3,3,5,5,6,6,7,7,8,8,9,9,11,11,12,12,13,13,14,14,15,15,16,16],"right_children":[2,-1,4,6,-1,8,10,12,14,16,-1,18,20,22,24,26,28,-1,-1,-1,-1,-1,-1,-1,-1,-1,-1,-1,-1],"split_conditions":[1.5174211E0,-1.03015125E-1,1.7215693E0,6.790132E-1,-9.601726E-2,2.0466397E0,1.6389399E0,2.0466397E0,-7.2071755E-1,-8.083697E-1,-1.6889541E-1,2.236068E0,-3.6871064E-1,-4.2453662E-1,3.904908E0,2.6391096E0,-5.9201455E-1,7.561736E-2,4.456996E-2,-1.1342894E-1,5.635762E-2,7.415684E-2,-1.20329104E-1,-2.0508735E-1,5.568896E-2,-2.4555098E-1,8.1916325E-2,-2.5057862E-2,5.1552035E-2],"split_indices":[17,0,14,5,0,1,7,2,16,7,0,19,8,8,17,4,8,0,0,0,0,0,0,0,0,0,0,0,0],"split_type":[0,0,0,0,0,0,0,0,0,0,0,0,0,0,0,0,0,0,0,0,0,0,0,0,0,0,0,0,0],"sum_hessian":[3.9032193E2,9.798307E1,2.9233887E2,2.845676E2,7.7712793E0,1.8818437E2,9.63832E1,1.7760745E2,1.0576925E1,9.3401085E1,2.9821167E0,1.6717874E2,1.0428716E1,6.112465E0,4.464461E0,5.0783744E0,8.8322716E1,1.4183075E2,2.5347996E1,2.188301E0,8.240415E0,5.0037966E0,1.1086683E0,3.359898E0,1.1045626E0,2.6678424E0,2.410532E0,9.486588E0,7.883613E1],"tree_param":{"num_deleted":"0","num_feature":"25","num_nodes":"29","size_leaf_vector":"1"}},{"base_weights":[8.268611E-2,-1.0250976E-1,4.3300927E-1,4.7364753E-1,-9.4776146E-2,5.614919E-1,6.8993546E-2,6.3050336E-1,-6.3088164E-2,5.057481E-1,-8.3007365E-1,6.779003E-1,2.6865453E-1,2.5674757E-1,-1.5241018E-1,-1.948647E-1,6.922146E-1,3.6741698E-1,-2.0824702E0,7.028838E-2,-4.382563E-2,5.2779913E-2,-8.934538E-2,-1.548641E-1,4.8204828E-2,8.278873E-2,-9.221438E-3,-6.393363E-2,1.0245116E-1,3.502179E-2,-2.7570742E-1],"categories":[],"categories_nodes":[],"categories_segments":[],"categories_sizes":[],"default_left":[0,0,0,0,0,0,0,0,0,0,0,0,0,0,0,0,0,0,0,0,0,0,0,0,0,0,0,0,0,0,0],"id":33,"left_children":[1,-1,3,5,-1,7,9,11,13,15,17,19,21,23,-1,-1,25,27,29,-1,-1,-1,-1,-1,-1,-1,-1,-1,-1,-1,-1],"loss_changes":[1.4526482E2,0E0,1.6396881E1,9.79903E0,0E0,9.835121E0,2.0251226E1,3.3291473E0,1.13820505E1,1.718982E1,2.6097301E1,5.3376236E0,8.111142E0,8.943483E0,0E0,0E0,3.5784502E0,6.9295497E0,1.4761078E1,0E0,0E0,0E0,0E0,0E0,0E0,0E0,0E0,0E0,0E0,0E0,0E0],"parents":[2147483647,0,0,2,2,3,3,5,5,6,6,7,7,8,8,9,9,10,10,11,11,12,12,13,13,16,16,17,17,18,18],"right_children":[2,-1,4,6,-1,8,10,12,14,16,18,20,22,24,-1,-1,26,28,30,-1,-1,-1,-1,-1,-1,-1,-1,-1,-1,-1,-1],"split_conditions":[1.5174211E0,-1.0250976E-1,1.7215693E0,2.236068E0,-9.4776146E-2,1.470602E0,8.179945E-1,2.0466397E0,6.977245E-1,-4.5744088E-1,-5.5911934E-1,2.143486E0,-2.7566734E-1,-5.9201455E-1,-1.5241018E-1,-1.948647E-1,1.4069456E0,1.3544166E0,-6.360019E-1,7.028838E-2,-4.382563E-2,5.2779913E-2,-8.934538E-2,-1.548641E-1,4.8204828E-2,8.278873E-2,-9.221438E-3,-6.393363E-2,1.0245116E-1,3.502179E-2,-2.7570742E-1],"split_indices":[17,0,14,21,0,5,5,0,16,3,6,9,8,8,0,0,16,3,11,0,0,0,0,0,0,0,0,0,0,0,0],"split_type":[0,0,0,0,0,0,0,0,0,0,0,0,0,0,0,0,0,0,0,0,0,0,0,0,0,0,0,0,0,0,0],"sum_hessian":[3.721707E2,8.8954544E1,2.8321616E2,2.7575714E2,7.4590006E0,2.2625333E2,4.9503815E1,2.0373286E2,2.2520458E1,3.36127E1,1.5891115E1,1.793652E2,2.436767E1,1.9152077E1,3.3683825E0,1.7060581E0,3.1906643E1,8.484863E0,7.4062524E0,1.7580043E2,3.5647714E0,2.0370886E1,3.9967844E0,1.4732121E0,1.7678864E1,2.715465E1,4.7519937E0,3.3615549E0,5.123308E0,1.7123182E0,5.693934E0],"tree_param":{"num_deleted":"0","num_feature":"25","num_nodes":"31","size_leaf_vector":"1"}},{"base_weights":[5.763859E-2,-1.020561E-1,3.9076787E-1,4.27205E-1,-9.263195E-2,3.6293903E-1,8.8793486E-1,7.432488E-1,2.729854E-1,9.5270973E-1,-3.928735E-2,8.157908E-1,-3.5050625E-1,-2.0040439E-1,2.9658508E-1,1.0038404E0,4.243123E-1,8.911186E-2,-4.492159E-2,6.057615E-2,-1.2296573E-1,3.7801888E-2,-3.231753E-2,1.0228068E-1,2.6201284E-2,5.663062E-3,6.635506E-2],"categories":[],"categories_nodes":[],"categories_segments":[],"categories_sizes":[],"default_left":[0,0,0,0,0,0,0,0,0,0,0,0,0,0,0,0,0,0,0,0,0,0,0,0,0,0,0],"id":34,"left_children":[1,-1,3,5,-1,7,9,11,13,15,-1,17,19,-1,21,23,25,-1,-1,-1,-1,-1,-1,-1,-1,-1,-1],"loss_changes":[1.2515814E2,0E0,1.3165195E1,7.3643646E0,0E0,7.6488743E0,2.9534225E0,3.7232475E0,1.0653608E1,3.814087E-1,0E0,4.300335E0,3.598258E0,0E0,9.516752E0,1.0505676E-1,3.467058E-1,0E0,0E0,0E0,0E0,0E0,0E0,0E0,0E0,0E0,0E0],"parents":[2147483647,0,0,2,2,3,3,5,5,6,6,7,7,8,8,9,9,11,11,12,12,14,14,15,15,16,16],"right_children":[2,-1,4,6,-1,8,10,12,14,16,-1,18,20,-1,22,24,26,-1,-1,-1,-1,-1,-1,-1,-1,-1,-1],"split_conditions":[1.5174211E0,-1.020561E-1,1.7215693E0,3.904908E0,-9.263195E-2,-1.0347549E0,6.5838826E-1,2.0466397E0,-9.68296E-1,1.6190906E0,-3.928735E-2,1.9065475E-1,-9.438609E-1,-2.0040439E-1,2.0466397E0,8.2224363E-1,2.250531E0,8.911186E-2,-4.492159E-2,6.057615E-2,-1.2296573E-1,3.7801888E-2,-3.231753E-2,1.0228068E-1,2.6201284E-2,5.663062E-3,6.635506E-2],"split_indices":[17,0,14,17,0,11,6,1,11,4,0,9,7,0,0,8,4,0,0,0,0,0,0,0,0,0,0],"split_type":[0,0,0,0,0,0,0,0,0,0,0,0,0,0,0,0,0,0,0,0,0,0,0,0,0,0,0],"sum_hessian":[3.4634506E2,8.1264015E1,2.6508105E2,2.5860248E2,6.4785748E0,2.2851524E2,3.0087229E1,4.2321983E1,1.8619325E2,2.8882698E1,1.2045317E0,3.9927944E1,2.394036E0,1.0491308E0,1.8514413E2,2.5514034E1,3.3686643E0,3.7962917E1,1.965029E0,1.2956765E0,1.0983596E0,1.6398701E2,2.1157106E1,2.4508654E1,1.0053794E0,1.8153667E0,1.5532975E0],"tree_param":{"num_deleted":"0","num_feature":"25","num_nodes":"27","size_leaf_vector":"1"}},{"base_weights":[6.631098E-2,-1.0161765E-1,3.7916535E-1,4.1742536E-1,-9.2542134E-2,2.9157004E-1,8.4197146E-1,4.61153E-1,-7.6041944E-2,2.1482222E-1,8.791898E-1,5.169905E-1,-4.3619102E-1,9.7556934E-2,-1.9556032E-1,-3.1112907E-2,6.678291E-2,9.076465E-1,6.135738E-3,-7.8330874E-2,5.5262685E-2,2.4333144E-2,-1.299132E-1,-1.6652346E-1,2.9782077E-2,9.389036E-2,1.3249134E-2],"categories":[],"categories_nodes":[],"categories_segments":[],"categories_sizes":[],"default_left":[0,0,0,0,0,0,0,0,0,0,0,0,0,0,0,0,0,0,0,0,0,0,0,0,0,0,0],"id":35,"left_children":[1,-1,3,5,-1,7,9,11,13,15,17,19,21,23,-1,-1,-1,25,-1,-1,-1,-1,-1,-1,-1,-1,-1],"loss_changes":[1.1359678E2,0E0,1.3367157E1,1.3291164E1,0E0,1.2312811E1,1.1509476E0,6.985487E0,2.0757072E1,1.2892356E0,1.1978264E0,6.3395424E0,5.268588E0,2.1202131E1,0E0,0E0,0E0,1.1349869E0,0E0,0E0,0E0,0E0,0E0,0E0,0E0,0E0,0E0],"parents":[2147483647,0,0,2,2,3,3,5,5,6,6,7,7,8,8,9,9,10,10,11,11,12,12,13,13,17,17],"right_children":[2,-1,4,6,-1,8,10,12,14,16,18,20,22,24,-1,-1,-1,26,-1,-1,-1,-1,-1,-1,-1,-1,-1],"split_conditions":[1.5174211E0,-1.0161765E-1,1.7215693E0,3.4274106E0,-9.2542134E-2,6.790132E-1,-1.4701289E0,2.0466397E0,9.868885E-1,-4.2998976E-1,1.7509512E0,-8.6417043E-1,-2.1850988E-1,-7.406241E-1,-1.9556032E-1,-3.1112907E-2,6.678291E-2,2.2698207E0,6.135738E-3,-7.8330874E-2,5.5262685E-2,2.4333144E-2,-1.299132E-1,-1.6652346E-1,2.9782077E-2,9.389036E-2,1.3249134E-2],"split_indices":[17,0,14,17,0,5,3,2,7,6,3,4,9,7,0,0,0,7,0,0,0,0,0,0,0,0,0],"split_type":[0,0,0,0,0,0,0,0,0,0,0,0,0,0,0,0,0,0,0,0,0,0,0,0,0,0,0],"sum_hessian":[3.3329153E2,7.422439E1,2.5906714E2,2.5234653E2,6.7206116E0,1.959458E2,5.6400726E1,1.3391504E2,6.203076E1,3.5389771E0,5.286175E1,1.26469315E2,7.4457226E0,5.7653866E1,4.376895E0,1.7825673E0,1.7564099E0,5.0978134E1,1.8836154E0,2.8139331E0,1.2365538E2,4.567258E0,2.8784647E0,5.1353693E0,5.2518497E1,4.8799126E1,2.1790085E0],"tree_param":{"num_deleted":"0","num_feature":"25","num_nodes":"27","size_leaf_vector":"1"}},{"base_weights":[5.9428643E-3,-1.0118107E-1,2.9845077E-1,1.9546218E-1,6.6194594E-1,2.509232E-1,-1.0671664E0,7.14627E-1,9.053322E-2,7.188743E-1,1.2752132E-1,-1.7816483E0,3.503105E-2,7.894541E-1,1.6579933E-2,6.612723E-2,-7.985893E-2,8.475958E-1,3.631477E-2,5.631691E-1,-3.621952E-2,1.7455386E-2,-2.4861915E-1,4.1650546E-1,8.8630885E-1,-9.369436E-2,5.632324E-2,8.752063E-4,8.984847E-2,7.6895356E-2,-9.001872E-2,6.5578096E-2,-4.5630127E-2,9.685724E-3,-1.8886219E-1,7.681949E-2,-7.717546E-2,9.36299E-2,4.6446244E-3],"categories":[],"categories_nodes":[],"categories_segments":[],"categories_sizes":[],"default_left":[0,0,0,0,0,0,0,0,0,0,0,0,0,0,0,0,0,0,0,0,0,0,0,0,0,0,0,0,0,0,0,0,0,0,0,0,0,0,0],"id":36,"left_children":[1,-1,3,5,7,9,11,13,15,17,19,21,-1,23,25,-1,-1,27,29,31,33,-1,-1,35,37,-1,-1,-1,-1,-1,-1,-1,-1,-1,-1,-1,-1,-1,-1],"loss_changes":[9.058977E1,0E0,8.718561E0,1.3263899E1,1.4934578E0,1.0221124E1,8.725542E0,2.4547558E0,3.3263807E0,3.224596E0,1.0188043E1,7.990572E0,0E0,1.1714897E0,3.444479E0,0E0,0E0,1.3209305E0,5.4425826E0,3.9812918E0,2.5952866E1,0E0,0E0,5.055824E0,1.3408241E0,0E0,0E0,0E0,0E0,0E0,0E0,0E0,0E0,0E0,0E0,0E0,0E0,0E0,0E0],"parents":[2147483647,0,0,2,2,3,3,4,4,5,5,6,6,7,7,8,8,9,9,10,10,11,11,13,13,14,14,17,17,18,18,19,19,20,20,23,23,24,24],"right_children":[2,-1,4,6,8,10,12,14,16,18,20,22,-1,24,26,-1,-1,28,30,32,34,-1,-1,36,38,-1,-1,-1,-1,-1,-1,-1,-1,-1,-1,-1,-1,-1,-1],"split_conditions":[1.5174211E0,-1.0118107E-1,3.4274106E0,1.7157229E0,1.6389399E0,1.7561698E0,1.1042949E0,2.0466397E0,-3.3010024E-1,3.8481784E-1,-5.960135E-1,-5.3630716E-1,3.503105E-2,-5.346826E-1,5.339893E-1,6.612723E-2,-7.985893E-2,-8.277412E-1,-5.222252E-1,4.670829E-3,2.0466397E0,1.7455386E-2,-2.4861915E-1,-4.1591343E-1,1.7509512E0,-9.369436E-2,5.632324E-2,8.752063E-4,8.984847E-2,7.6895356E-2,-9.001872E-2,6.5578096E-2,-4.5630127E-2,9.685724E-3,-1.8886219E-1,7.681949E-2,-7.717546E-2,9.36299E-2,4.6446244E-3],"split_indices":[17,0,17,9,7,17,3,2,9,10,6,4,0,9,5,0,0,4,6,9,1,0,0,10,3,0,0,0,0,0,0,0,0,0,0,0,0,0,0],"split_type":[0,0,0,0,0,0,0,0,0,0,0,0,0,0,0,0,0,0,0,0,0,0,0,0,0,0,0,0,0,0,0,0,0,0,0,0,0,0,0],"sum_hessian":[3.022835E2,6.693398E1,2.3534953E2,1.8458817E2,5.076137E1,1.7758884E2,6.9993286E0,4.624702E1,4.51435E0,3.6051777E1,1.4153706E2,4.482833E0,2.5164955E0,4.165127E1,4.5957494E0,2.905522E0,1.6088278E0,3.012821E1,5.923565E0,3.799867E1,1.035384E2,1.3862051E0,3.096628E0,9.679545E0,3.1971727E1,1.4144918E0,3.1812575E0,1.7902359E0,2.8337975E1,3.4239047E0,2.4996603E0,3.5161255E1,2.8374114E0,9.7482925E1,6.0554705E0,7.741736E0,1.9378093E0,3.0067245E1,1.9044809E0],"tree_param":{"num_deleted":"0","num_feature":"25","num_nodes":"39","size_leaf_vector":"1"}},{"base_weights":[-7.906862E-3,4.60109E-2,-9.6600674E-2,1.0933105E-1,-4.4934478E-1,1.545455E-1,-1.3930626E-1,-1.0644494E0,4.0950698E-1,-1.1763861E-1,1.6970776E-1,6.9626085E-2,-1.5479984E0,-1.0758791E-1,6.920837E-1,1.3073991E-1,6.365E-1,-1.7656441E0,5.4400247E-2,1.2212632E-2,8.0609643E-1,2.244047E-2,-4.0828887E-2,-5.1550786E-3,7.352166E-2,-4.5991063E-2,-1.9834591E-1,3.8480174E-2,9.3157336E-2],"categories":[],"categories_nodes":[],"categories_segments":[],"categories_sizes":[],"default_left":[0,0,0,0,0,0,0,0,0,0,0,0,0,0,0,0,0,0,0,0,0,0,0,0,0,0,0,0,0],"id":37,"left_children":[1,3,-1,5,7,9,-1,11,13,-1,15,-1,17,-1,19,21,23,25,-1,-1,27,-1,-1,-1,-1,-1,-1,-1,-1],"loss_changes":[1.5067193E1,8.714588E0,0E0,1.6909836E1,1.7081045E1,5.0323577E0,0E0,1.6945192E1,6.5667205E0,0E0,4.2397523E0,0E0,7.7591553E0,0E0,6.983986E-1,1.1229542E1,1.2640696E0,3.0013084E0,0E0,0E0,1.7226315E-1,0E0,0E0,0E0,0E0,0E0,0E0,0E0,0E0],"parents":[2147483647,0,0,1,1,3,3,4,4,5,5,7,7,8,8,10,10,12,12,14,14,15,15,16,16,17,17,20,20],"right_children":[2,4,-1,6,8,10,-1,12,14,-1,16,-1,18,-1,20,22,24,26,-1,-1,28,-1,-1,-1,-1,-1,-1,-1,-1],"split_conditions":[1.7215693E0,2.0466397E0,-9.6600674E-2,1.615626E0,1.3134928E0,-1.6328843E0,-1.3930626E-1,-9.438609E-1,-2.3724891E-1,-1.1763861E-1,2.4225883E0,6.9626085E-2,4.3512306E0,-1.0758791E-1,1.2995119E0,6.65097E-1,2.3801957E-1,-1.2341313E0,5.4400247E-2,1.2212632E-2,1.8012369E0,2.244047E-2,-4.0828887E-2,-5.1550786E-3,7.352166E-2,-4.5991063E-2,-1.9834591E-1,3.8480174E-2,9.3157336E-2],"split_indices":[14,1,0,5,5,11,0,7,11,0,8,0,10,0,3,7,3,11,0,0,4,0,0,0,0,0,0,0,0],"split_type":[0,0,0,0,0,0,0,0,0,0,0,0,0,0,0,0,0,0,0,0,0,0,0,0,0,0,0,0,0],"sum_hessian":[2.8980826E2,2.7526926E2,1.4539001E1,2.4476129E2,3.0507969E1,2.3848135E2,6.2799497E0,1.763704E1,1.287093E1,1.8235663E0,2.3665778E2,3.7053032E0,1.3931736E1,1.6084745E0,1.1262456E1,2.1960521E2,1.7052578E1,1.2760203E1,1.1715325E0,2.2226152E0,9.039841E0,1.8759184E2,3.201337E1,2.1995544E0,1.4853023E1,2.2691035E0,1.0491099E1,3.007782E0,6.0320582E0],"tree_param":{"num_deleted":"0","num_feature":"25","num_nodes":"29","size_leaf_vector":"1"}},{"base_weights":[-3.248103E-2,-1.0075247E-1,2.3914795E-1,1.2366446E-1,6.2727636E-1,6.079113E-1,1.7124863E-2,6.869915E-1,1.8691385E-2,7.5732476E-1,-2.2495425E-1,3.3736613E-1,-1.9312069E-1,4.8733187E-1,8.52947E-1,-8.1644125E-2,6.64761E-2,-3.565676E-2,8.211257E-1,-1.0836579E-1,5.6170363E-2,-6.907999E-1,4.207897E-1,-7.440512E-2,-2.3190498E-1,6.45622E-1,-1.2883337E-1,9.603315E-2,1.6757493E-1,9.033855E-2,2.6383301E-2,-1.8997064E-1,2.4747593E-2,7.681029E-2,1.7299501E-2,-1.06543444E-1,6.587043E-3,-3.811376E-2,8.5766226E-2,6.423945E-2,-2.8803283E-2],"categories":[],"categories_nodes":[],"categories_segments":[],"categories_sizes":[],"default_left":[0,0,0,0,0,0,0,0,0,0,0,0,0,0,0,0,0,0,0,0,0,0,0,0,0,0,0,0,0,0,0,0,0,0,0,0,0,0,0,0,0],"id":38,"left_children":[1,-1,3,5,7,9,11,13,15,17,19,21,23,25,27,-1,-1,-1,29,-1,-1,31,33,35,-1,37,-1,-1,39,-1,-1,-1,-1,-1,-1,-1,-1,-1,-1,-1,-1],"loss_changes":[7.382146E1,0E0,9.697992E0,8.725542E0,1.795744E0,3.9667034E0,9.479294E0,1.0850391E0,3.4966598E0,2.147338E0,4.2641187E0,5.07505E0,2.1290707E1,7.2657447E0,1.5612946E0,0E0,0E0,0E0,9.070263E-1,0E0,0E0,5.647835E0,4.3608274E0,1.1410991E1,0E0,5.0477066E0,0E0,0E0,1.1328048E0,0E0,0E0,0E0,0E0,0E0,0E0,0E0,0E0,0E0,0E0,0E0,0E0],"parents":[2147483647,0,0,2,2,3,3,4,4,5,5,6,6,7,7,8,8,9,9,10,10,11,11,12,12,13,13,14,14,18,18,21,21,22,22,23,23,25,25,28,28],"right_children":[2,-1,4,6,8,10,12,14,16,18,20,22,24,26,28,-1,-1,-1,30,-1,-1,32,34,36,-1,38,-1,-1,40,-1,-1,-1,-1,-1,-1,-1,-1,-1,-1,-1,-1],"split_conditions":[1.5174211E0,-1.0075247E-1,3.4274106E0,1.7561698E0,1.5203851E0,3.475745E-1,-5.835084E-1,-4.9380633E-1,1.957372E0,-8.338127E-1,2.5156317E0,-1.3127096E0,9.535416E-1,-7.8331125E-1,1.470602E0,-8.1644125E-2,6.64761E-2,-3.565676E-2,9.569757E-1,-1.0836579E-1,5.6170363E-2,-5.222252E-1,-2.9385552E-1,-5.276434E-1,-2.3190498E-1,-5.1608413E-1,-1.2883337E-1,9.603315E-2,-5.960135E-1,9.033855E-2,2.6383301E-2,-1.8997064E-1,2.4747593E-2,7.681029E-2,1.7299501E-2,-1.06543444E-1,6.587043E-3,-3.811376E-2,8.5766226E-2,6.423945E-2,-2.8803283E-2],"split_indices":[17,0,17,17,7,10,10,4,8,4,8,12,6,5,5,0,0,0,5,0,0,6,5,10,0,9,0,0,6,0,0,0,0,0,0,0,0,0,0,0,0],"split_type":[0,0,0,0,0,0,0,0,0,0,0,0,0,0,0,0,0,0,0,0,0,0,0,0,0,0,0,0,0,0,0,0,0,0,0,0,0,0,0,0,0],"sum_hessian":[2.7681943E2,5.9724007E1,2.1709543E2,1.6832942E2,4.876601E1,2.9507072E1,1.3882236E2,4.429126E1,4.4747486E0,2.5095684E1,4.4113874E0,5.4779236E1,8.404312E1,2.1890955E1,2.2400307E1,1.8367696E0,2.6379788E0,1.1109525E0,2.3984732E1,1.9286051E0,2.4827821E0,3.5647178E0,5.1214516E1,8.0578476E1,3.464643E0,2.0683544E1,1.2074108E0,1.9019188E1,3.3811188E0,2.0358644E1,3.6260881E0,1.1099468E0,2.454771E0,2.0450706E1,3.0763811E1,9.173505E0,7.140497E1,3.4038157E0,1.7279728E1,1.4548985E0,1.9262203E0],"tree_param":{"num_deleted":"0","num_feature":"25","num_nodes":"41","size_leaf_vector":"1"}},{"base_weights":[4.7527663E-2,-1.0031936E-1,2.9821432E-1,2.334512E-1,8.08441E-1,6.71144E-1,1.580089E-1,9.025033E-1,-1.2576657E-2,8.1421626E-1,-3.565495E-1,-1.8490738E-1,2.6551732E-1,9.413886E-2,2.6492206E-2,9.6033916E-2,3.1142324E-1,-1.7354767E-1,7.062357E-2,4.576477E-2,-2.6960394E-1,9.685515E-2,1.9998877E-1,-2.1088568E-2,7.588703E-2,3.1774234E-2,-2.2510493E-1,2.891999E-2,-4.772815E-2],"categories":[],"categories_nodes":[],"categories_segments":[],"categories_sizes":[],"default_left":[0,0,0,0,0,0,0,0,0,0,0,0,0,0,0,0,0,0,0,0,0,0,0,0,0,0,0,0,0],"id":39,"left_children":[1,-1,3,5,7,9,11,13,-1,15,17,19,21,-1,-1,-1,23,-1,-1,25,-1,-1,27,-1,-1,-1,-1,-1,-1],"loss_changes":[7.3639244E1,0E0,7.265009E0,6.5499134E0,2.3104248E0,4.6024427E0,6.4359345E0,3.1677246E-1,0E0,1.6146622E0,7.4970994E0,2.4416754E1,5.9013567E0,0E0,0E0,0E0,1.8766966E0,0E0,0E0,2.5324196E1,0E0,0E0,7.526386E0,0E0,0E0,0E0,0E0,0E0,0E0],"parents":[2147483647,0,0,2,2,3,3,4,4,5,5,6,6,7,7,9,9,10,10,11,11,12,12,16,16,19,19,22,22],"right_children":[2,-1,4,6,8,10,12,14,-1,16,18,20,22,-1,-1,-1,24,-1,-1,26,-1,-1,28,-1,-1,-1,-1,-1,-1],"split_conditions":[1.5174211E0,-1.0031936E-1,3.904908E0,1.7561698E0,1.5008293E0,3.8481784E-1,-6.305375E-1,1.6360837E0,-1.2576657E-2,-7.587048E-2,1.4069456E0,1.9065475E-1,-5.966647E-1,9.413886E-2,2.6492206E-2,9.6033916E-2,1.7163758E0,-1.7354767E-1,7.062357E-2,4.937982E-1,-2.6960394E-1,9.685515E-2,2.0466397E0,-2.1088568E-2,7.588703E-2,3.1774234E-2,-2.2510493E-1,2.891999E-2,-4.772815E-2],"split_indices":[17,0,17,17,3,10,7,6,0,7,16,9,7,0,0,0,15,0,0,11,0,0,0,0,0,0,0,0,0],"split_type":[0,0,0,0,0,0,0,0,0,0,0,0,0,0,0,0,0,0,0,0,0,0,0,0,0,0,0,0,0],"sum_hessian":[2.774342E2,5.286317E1,2.2457104E2,2.0057019E2,2.400085E1,2.8327385E1,1.7224281E2,2.1836174E1,2.1646764E0,2.5048006E1,3.2793784E0,4.0939487E1,1.3130331E2,2.0131857E1,1.7043161E0,1.8702602E1,6.3454037E0,1.1518898E0,2.1274886E0,3.8394363E1,2.5451243E0,1.0020128E1,1.21283195E2,3.171719E0,3.1736846E0,3.5099686E1,3.2946746E0,1.0767329E2,1.3609904E1],"tree_param":{"num_deleted":"0","num_feature":"25","num_nodes":"29","size_leaf_vector":"1"}},{"base_weights":[6.9401205E-2,-9.99817E-2,3.083347E-1,2.4055809E-1,8.1165624E-1,2.6459107E-1,-1.6809638E-1,8.460884E-1,8.114697E-3,3.3719504E-1,-3.8921592E-1,9.480753E-2,3.2845798E-1,4.4595617E-1,5.265909E-3,-1.0412321E0,3.7661132E-1,-7.99879E-2,7.5523525E-2,5.3932276E-2,5.7028914E-3,-5.1531088E-2,3.664318E-2,2.6264608E-2,-1.8718104E-1,6.7452796E-2,-9.4067454E-2],"categories":[],"categories_nodes":[],"categories_segments":[],"categories_sizes":[],"default_left":[0,0,0,0,0,0,0,0,0,0,0,0,0,0,0,0,0,0,0,0,0,0,0,0,0,0,0],"id":40,"left_children":[1,-1,3,5,7,9,-1,11,-1,13,15,-1,17,19,21,23,25,-1,-1,-1,-1,-1,-1,-1,-1,-1,-1],"loss_changes":[7.029781E1,0E0,7.469593E0,9.655013E0,5.914612E-1,9.522655E0,0E0,1.0061016E0,0E0,6.4454613E0,1.0497814E1,0E0,3.3190136E0,4.8538055E0,8.66661E0,1.2617771E1,4.575133E0,0E0,0E0,0E0,0E0,0E0,0E0,0E0,0E0,0E0,0E0],"parents":[2147483647,0,0,2,2,3,3,4,4,5,5,7,7,9,9,10,10,12,12,13,13,14,14,15,15,16,16],"right_children":[2,-1,4,6,8,10,-1,12,-1,14,16,-1,18,20,22,24,26,-1,-1,-1,-1,-1,-1,-1,-1,-1,-1],"split_conditions":[1.5174211E0,-9.99817E-2,3.904908E0,3.3902388E0,1.9017068E0,2.0466397E0,-1.6809638E-1,2.0466397E0,8.114697E-3,9.5788217E-1,1.1958028E0,9.480753E-2,-1.1496506E-2,6.65097E-1,-3.0418348E-1,-5.306473E-1,-2.2969687E-1,-7.99879E-2,7.5523525E-2,5.3932276E-2,5.7028914E-3,-5.1531088E-2,3.664318E-2,2.6264608E-2,-1.8718104E-1,6.7452796E-2,-9.4067454E-2],"split_indices":[17,0,17,8,9,1,0,2,0,3,3,0,16,7,10,3,10,0,0,0,0,0,0,0,0,0,0],"split_type":[0,0,0,0,0,0,0,0,0,0,0,0,0,0,0,0,0,0,0,0,0,0,0,0,0,0,0],"sum_hessian":[2.7296158E2,4.9274704E1,2.2368687E2,1.9844276E2,2.524411E1,1.9684311E2,1.5996671E0,2.3956707E1,1.2874026E0,1.776047E2,1.9238396E1,1.9318819E1,4.637888E0,1.3351361E2,4.409109E1,1.0197093E1,9.041303E0,1.0328782E0,3.6050098E0,1.0735508E2,2.6158535E1,1.7885098E1,2.6205996E1,4.23406E0,5.9630337E0,7.771619E0,1.2696837E0],"tree_param":{"num_deleted":"0","num_feature":"25","num_nodes":"27","size_leaf_vector":"1"}},{"base_weights":[1.5696333E-1,-9.957626E-2,3.7320572E-1,3.206744E-1,7.944465E-1,3.7819344E-1,-1.6382946E-1,8.2833916E-1,7.6806406E-3,7.0126504E-1,3.0685005E-1,2.9106075E-1,-1.5285133E-1,9.2675686E-2,3.0395186E-1,7.531499E-1,-1.2031234E-2,3.7581086E-1,-4.9126264E-2,8.233303E-1,-7.363248E-2,-7.709993E-2,7.2310515E-2,7.8067146E-2,-1.9433983E-3,5.863292E-2,1.4602907E-2,1.4873854E-2,-1.5441875E-1,2.811323E-2,9.157522E-2,-1.6373254E-1,3.1508863E-2],"categories":[],"categories_nodes":[],"categories_segments":[],"categories_sizes":[],"default_left":[0,0,0,0,0,0,0,0,0,0,0,0,0,0,0,0,0,0,0,0,0,0,0,0,0,0,0,0,0,0,0,0,0],"id":41,"left_children":[1,-1,3,5,7,9,11,13,-1,15,17,19,-1,-1,21,23,-1,25,27,29,31,-1,-1,-1,-1,-1,-1,-1,-1,-1,-1,-1,-1],"loss_changes":[7.174859E1,0E0,5.0968056E0,6.1011047E0,5.72134E-1,4.25655E0,1.5153797E1,1.0011749E0,0E0,1.5533829E0,3.963252E0,3.673246E0,0E0,0E0,2.9978318E0,7.043972E-1,0E0,6.431799E0,8.205767E0,1.2584925E-1,7.786743E0,0E0,0E0,0E0,0E0,0E0,0E0,0E0,0E0,0E0,0E0,0E0,0E0],"parents":[2147483647,0,0,2,2,3,3,4,4,5,5,6,6,7,7,9,9,10,10,11,11,14,14,15,15,17,17,18,18,19,19,20,20],"right_children":[2,-1,4,6,8,10,12,14,-1,16,18,20,-1,-1,22,24,-1,26,28,30,32,-1,-1,-1,-1,-1,-1,-1,-1,-1,-1,-1,-1],"split_conditions":[1.5174211E0,-9.957626E-2,3.904908E0,2.0466397E0,1.9017068E0,1.7561698E0,-3.5010198E-1,2.0466397E0,7.6806406E-3,3.0319588E0,1.4069456E0,-6.3435626E-1,-1.5285133E-1,9.2675686E-2,-1.1496506E-2,1.6729779E0,-1.2031234E-2,-1.09710656E-1,2.0466397E0,-8.464766E-1,-1.3411278E-1,-7.709993E-2,7.2310515E-2,7.8067146E-2,-1.9433983E-3,5.863292E-2,1.4602907E-2,1.4873854E-2,-1.5441875E-1,2.811323E-2,9.157522E-2,-1.6373254E-1,3.1508863E-2],"split_indices":[17,0,17,0,9,17,8,2,0,7,16,3,0,0,16,6,0,3,1,7,3,0,0,0,0,0,0,0,0,0,0,0,0],"split_type":[0,0,0,0,0,0,0,0,0,0,0,0,0,0,0,0,0,0,0,0,0,0,0,0,0,0,0,0,0,0,0,0,0],"sum_hessian":[2.8534607E2,4.4503876E1,2.408422E2,2.1570386E2,2.5138336E1,1.9300967E2,2.2694187E1,2.385735E1,1.2809862E0,3.331526E1,1.5969441E2,1.7610722E1,5.0834646E0,1.9441273E1,4.4160776E0,3.1414629E1,1.9006333E0,1.3373178E2,2.5962639E1,6.6489644E0,1.0961758E1,1.0033888E0,3.4126887E0,3.0323938E1,1.0906918E0,6.898154E1,6.475024E1,2.3723457E1,2.2391822E0,1.5569379E0,5.092026E0,1.5429423E0,9.418815E0],"tree_param":{"num_deleted":"0","num_feature":"25","num_nodes":"33","size_leaf_vector":"1"}},{"base_weights":[8.333139E-2,-9.916789E-2,2.834545E-1,3.2053646E-1,-9.093776E-2,2.635949E-1,8.601483E-1,6.4906406E-1,1.9100998E-1,9.514913E-2,1.5108818E-1,7.235445E-1,-2.8442858E-2,2.5457802E-1,-2.7746278E-1,-2.3693746E-2,4.6910178E-2,8.9279465E-2,8.563469E-3,1.991102E-2,6.433946E-2,4.137386E-2,-1.0521197E-1],"categories":[],"categories_nodes":[],"categories_segments":[],"categories_sizes":[],"default_left":[0,0,0,0,0,0,0,0,0,0,0,0,0,0,0,0,0,0,0,0,0,0,0],"id":42,"left_children":[1,-1,3,5,-1,7,9,11,13,-1,15,17,-1,19,21,-1,-1,-1,-1,-1,-1,-1,-1],"loss_changes":[5.632289E1,0E0,1.0039961E1,6.363638E0,0E0,5.3447027E0,1.1536036E0,2.330225E0,5.0111003E0,0E0,5.3992045E-1,3.0092106E0,0E0,3.0335722E0,1.1304862E1,0E0,0E0,0E0,0E0,0E0,0E0,0E0,0E0],"parents":[2147483647,0,0,2,2,3,3,5,5,6,6,7,7,8,8,10,10,11,11,13,13,14,14],"right_children":[2,-1,4,6,-1,8,10,12,14,-1,16,18,-1,20,22,-1,-1,-1,-1,-1,-1,-1,-1],"split_conditions":[1.5174211E0,-9.916789E-2,1.7215693E0,3.904908E0,-9.093776E-2,1.7561698E0,1.6190906E0,1.2248453E0,2.0466397E0,9.514913E-2,2.250531E0,1.2740281E-2,-2.8442858E-2,1.5876476E0,-2.3724891E-1,-2.3693746E-2,4.6910178E-2,8.9279465E-2,8.563469E-3,1.991102E-2,6.433946E-2,4.137386E-2,-1.0521197E-1],"split_indices":[17,0,14,17,0,17,4,11,0,0,4,6,0,12,11,0,0,0,0,0,0,0,0],"split_type":[0,0,0,0,0,0,0,0,0,0,0,0,0,0,0,0,0,0,0,0,0,0,0],"sum_hessian":[2.5949667E2,4.0105392E1,2.193913E2,2.1348587E2,5.9054255E0,1.9445485E2,1.9031013E1,2.955548E1,1.6489937E2,1.6556284E1,2.4747295E0,2.7579874E1,1.9756048E0,1.4559929E2,1.9300087E1,1.2294979E0,1.2452315E0,2.1480982E1,6.0988936E0,1.2874489E2,1.68544E1,1.0445664E1,8.854422E0],"tree_param":{"num_deleted":"0","num_feature":"25","num_nodes":"23","size_leaf_vector":"1"}},{"base_weights":[6.573765E-2,-9.8793045E-2,2.5225478E-1,2.8786838E-1,-8.9958996E-2,3.8159806E-1,-6.648312E-2,4.3570584E-1,-7.2733676E-1,-4.8086366E-1,5.957569E-1,3.341029E-1,7.5709975E-1,-1.1821841E0,6.393951E-2,-1.6625445E0,7.20749E-2,7.939455E-1,-1.157008E-1,4.1741174E-2,-2.9603094E-2,-4.3021585E-3,8.868038E-2,-1.6944186E-1,5.7605274E-2,-2.5279617E-1,7.660529E-2,6.1395325E-2,-4.7640163E-2,8.982807E-2,-4.9435706E-3],"categories":[],"categories_nodes":[],"categories_segments":[],"categories_sizes":[],"default_left":[0,0,0,0,0,0,0,0,0,0,0,0,0,0,0,0,0,0,0,0,0,0,0,0,0,0,0,0,0,0,0],"id":43,"left_children":[1,-1,3,5,-1,7,9,11,13,15,17,19,21,23,-1,25,27,29,-1,-1,-1,-1,-1,-1,-1,-1,-1,-1,-1,-1,-1],"loss_changes":[4.9150963E1,0E0,8.963837E0,6.887121E0,0E0,1.0128984E1,1.2379474E1,4.85902E0,5.7181973E0,1.819263E1,6.965691E0,6.461607E0,3.8584938E0,6.6862774E0,0E0,2.0555021E1,6.177555E0,1.4727716E0,0E0,0E0,0E0,0E0,0E0,0E0,0E0,0E0,0E0,0E0,0E0,0E0,0E0],"parents":[2147483647,0,0,2,2,3,3,5,5,6,6,7,7,8,8,9,9,10,10,11,11,12,12,13,13,15,15,16,16,17,17],"right_children":[2,-1,4,6,-1,8,10,12,14,16,18,20,22,24,-1,26,28,30,-1,-1,-1,-1,-1,-1,-1,-1,-1,-1,-1,-1,-1],"split_conditions":[1.5174211E0,-9.8793045E-2,1.7215693E0,5.846491E-1,-8.9958996E-2,1.2316341E0,1.5293727E0,6.385481E-2,3.4274106E0,1.7876405E-1,3.0319588E0,-2.1982987E-1,-3.723755E-1,3.814123E-1,6.393951E-2,2.060767E0,-5.835084E-1,3.3902388E0,-1.157008E-1,4.1741174E-2,-2.9603094E-2,-4.3021585E-3,8.868038E-2,-1.6944186E-1,5.7605274E-2,-2.5279617E-1,7.660529E-2,6.1395325E-2,-4.7640163E-2,8.982807E-2,-4.9435706E-3],"split_indices":[17,0,14,7,0,8,8,7,17,6,7,7,4,7,0,10,10,8,0,0,0,0,0,0,0,0,0,0,0,0,0],"split_type":[0,0,0,0,0,0,0,0,0,0,0,0,0,0,0,0,0,0,0,0,0,0,0,0,0,0,0,0,0,0,0],"sum_hessian":[2.4782951E2,3.6626007E1,2.112035E2,2.0559679E2,5.6067176E0,1.6252922E2,4.306757E1,1.5554678E2,6.9824324E0,2.665976E1,1.640781E1,1.1973443E2,3.5812355E1,5.3402348E0,1.6421976E0,7.8585553E0,1.8801203E1,1.5232477E1,1.1753336E0,1.0605118E2,1.36832485E1,5.0887914E0,3.0723566E1,4.1635475E0,1.1766872E0,5.763758E0,2.0947974E0,9.397438E0,9.403766E0,1.3497589E1,1.7348881E0],"tree_param":{"num_deleted":"0","num_feature":"25","num_nodes":"31","size_leaf_vector":"1"}},{"base_weights":[1.07203595E-1,-9.836792E-2,2.864807E-1,3.171573E-1,-8.644884E-2,6.157328E-1,2.1701996E-1,6.761917E-1,-8.509767E-2,2.8795713E-1,-2.4645092E-1,7.0654154E-1,-2.3503067E-2,-2.6759755E-2,4.092062E-1,-1.7339025E0,3.821039E-1,-2.1640865E-2,7.344549E-2,2.830414E-2,-1.1353548E-1,-1.0753503E-1,4.6330545E-2,-2.5874552E-1,3.1948105E-2,6.7476586E-2,-5.600805E-2],"categories":[],"categories_nodes":[],"categories_segments":[],"categories_sizes":[],"default_left":[0,0,0,0,0,0,0,0,0,0,0,0,0,0,0,0,0,0,0,0,0,0,0,0,0,0,0],"id":44,"left_children":[1,-1,3,5,-1,7,9,11,-1,13,15,17,-1,19,21,23,25,-1,-1,-1,-1,-1,-1,-1,-1,-1,-1],"loss_changes":[4.702934E1,0E0,7.5499954E0,5.889435E0,0E0,5.0136585E0,5.081464E0,1.5108299E0,0E0,5.072052E0,2.007978E1,1.3777275E0,0E0,1.3312307E1,8.192711E0,1.195569E1,4.629464E0,0E0,0E0,0E0,0E0,0E0,0E0,0E0,0E0,0E0,0E0],"parents":[2147483647,0,0,2,2,3,3,5,5,6,6,7,7,9,9,10,10,11,11,13,13,14,14,15,15,16,16],"right_children":[2,-1,4,6,-1,8,10,12,-1,14,16,18,-1,20,22,24,26,-1,-1,-1,-1,-1,-1,-1,-1,-1,-1],"split_conditions":[1.5174211E0,-9.836792E-2,1.7215693E0,-6.160547E-1,-8.644884E-2,2.0466397E0,9.868885E-1,2.0466397E0,-8.509767E-2,-6.305375E-1,-1.1496506E-2,-1.5563263E0,-2.3503067E-2,-7.660287E-1,-4.5744088E-1,1.2913041E0,1.0899143E0,-2.1640865E-2,7.344549E-2,2.830414E-2,-1.1353548E-1,-1.0753503E-1,4.6330545E-2,-2.5874552E-1,3.1948105E-2,6.7476586E-2,-5.600805E-2],"split_indices":[17,0,14,3,0,2,7,1,0,7,16,4,0,7,3,11,5,0,0,0,0,0,0,0,0,0,0],"split_type":[0,0,0,0,0,0,0,0,0,0,0,0,0,0,0,0,0,0,0,0,0,0,0,0,0,0,0],"sum_hessian":[2.3803186E2,3.296377E1,2.0506808E2,2.0044997E2,4.6181197E0,4.9050175E1,1.513998E2,4.7625965E1,1.424206E0,1.3163145E2,1.976834E1,4.6308212E1,1.3177553E0,3.6825542E1,9.4805916E1,5.3497653E0,1.4418574E1,1.1611788E0,4.5147034E1,2.9364267E1,7.461273E0,2.6696525E0,9.213627E1,3.595211E0,1.7545543E0,1.1217893E1,3.2006814E0],"tree_param":{"num_deleted":"0","num_feature":"25","num_nodes":"27","size_leaf_vector":"1"}},{"base_weights":[-4.3754713E-3,-9.800314E-2,1.6331644E-1,1.938637E-1,-8.5853405E-2,1.2942858E-1,7.271114E-1,3.8750505E-1,2.525452E-2,9.0915716E-1,1.1083475E-1,3.1095276E-2,5.927358E-1,-5.782109E-1,1.7943764E-1,9.508458E-2,2.4041474E-2,-4.2570657E-1,7.0200875E-2,5.40227E-2,-1.1030795E-1,9.437188E-2,3.5572357E-2,-3.3554982E-3,-2.9921922E-1,2.3541803E-2,-1.2290298E-1,-1.18824914E-1,5.7734486E-2],"categories":[],"categories_nodes":[],"categories_segments":[],"categories_sizes":[],"default_left":[0,0,0,0,0,0,0,0,0,0,0,0,0,0,0,0,0,0,0,0,0,0,0,0,0,0,0,0,0],"id":45,"left_children":[1,-1,3,5,-1,7,9,11,13,15,17,19,21,23,25,-1,-1,27,-1,-1,-1,-1,-1,-1,-1,-1,-1,-1,-1],"loss_changes":[3.506849E1,0E0,5.8764815E0,6.036856E0,0E0,4.3029175E0,2.0331078E0,3.3507743E0,1.0836637E1,1.7687511E-1,2.035806E0,1.0924504E1,2.0912418E0,3.1075E1,7.593774E0,0E0,0E0,3.3578672E0,0E0,0E0,0E0,0E0,0E0,0E0,0E0,0E0,0E0,0E0,0E0],"parents":[2147483647,0,0,2,2,3,3,5,5,6,6,7,7,8,8,9,9,10,10,11,11,12,12,13,13,14,14,17,17],"right_children":[2,-1,4,6,-1,8,10,12,14,16,18,20,22,24,26,-1,-1,28,-1,-1,-1,-1,-1,-1,-1,-1,-1,-1,-1],"split_conditions":[1.5174211E0,-9.800314E-2,1.7215693E0,3.904908E0,-8.5853405E-2,-4.267941E-1,1.470602E0,-8.2560986E-1,-9.444765E-2,1.2705733E0,4.7644033E0,4.937982E-1,-7.4273956E-1,2.236068E0,1.5807425E0,9.508458E-2,2.4041474E-2,-3.7872426E-2,7.0200875E-2,5.40227E-2,-1.1030795E-1,9.437188E-2,3.5572357E-2,-3.3554982E-3,-2.9921922E-1,2.3541803E-2,-1.2290298E-1,-1.18824914E-1,5.7734486E-2],"split_indices":[17,0,14,17,0,5,5,5,5,7,17,11,4,19,6,0,0,11,0,0,0,0,0,0,0,0,0,0,0],"split_type":[0,0,0,0,0,0,0,0,0,0,0,0,0,0,0,0,0,0,0,0,0,0,0,0,0,0,0,0,0],"sum_hessian":[2.1236421E2,3.0436424E1,1.8192778E2,1.7743384E2,4.4939365E0,1.5941376E2,1.8020086E1,4.5061207E1,1.1435255E2,1.3544E1,4.4760876E0,1.6886732E1,2.8174477E1,2.2711329E1,9.164122E1,1.2352139E1,1.1918598E0,2.4931948E0,1.9828928E0,1.2016293E1,4.8704386E0,1.0154828E1,1.8019648E1,1.9357649E1,3.3536804E0,8.893914E1,2.7020838E0,1.3115159E0,1.1816788E0],"tree_param":{"num_deleted":"0","num_feature":"25","num_nodes":"29","size_leaf_vector":"1"}},{"base_weights":[4.261591E-3,-9.760382E-2,1.5418546E-1,2.602962E-1,-3.2018277E-1,1.269764E-1,5.588724E-1,-1.2470835E0,1.1937896E-1,2.595659E-1,-4.9992403E-1,7.5815356E-1,5.184247E-2,1.10309646E-1,-2.3059847E0,2.5139636E-1,-1.1862397E-1,3.874744E-1,-7.6358415E-2,6.899405E-2,-8.8149935E-1,-6.438004E-2,8.4555566E-1,-1.8597601E-1,5.136057E-1,-8.978603E-2,5.344181E-1,2.650107E-3,-2.7877958E0,4.611073E-1,-4.1478568E-1,4.8541214E-2,-1.7429223E-2,-1.0440643E-1,3.032579E-2,-2.3102704E-1,-1.3025734E-2,3.2006245E-2,9.777758E-2,-8.202128E-2,7.058232E-2,7.432339E-2,-1.1064214E-2,-3.2732663E-1,-1.1429439E-1,7.052769E-2,-1.4667824E-1,-2.3659436E-1,6.0651667E-2],"categories":[],"categories_nodes":[],"categories_segments":[],"categories_sizes":[],"default_left":[0,0,0,0,0,0,0,0,0,0,0,0,0,0,0,0,0,0,0,0,0,0,0,0,0,0,0,0,0,0,0,0,0,0,0,0,0,0,0,0,0,0,0,0,0,0,0,0,0],"id":46,"left_children":[1,-1,3,5,7,9,11,13,15,17,19,21,23,25,27,29,-1,31,33,-1,35,-1,37,-1,39,-1,41,-1,43,45,47,-1,-1,-1,-1,-1,-1,-1,-1,-1,-1,-1,-1,-1,-1,-1,-1,-1,-1],"loss_changes":[3.1943922E1,0E0,9.571272E0,6.082617E0,1.4370132E1,9.120363E0,4.752612E0,1.6518625E1,4.5365343E0,3.8940434E0,9.336609E0,4.706978E0,1.3713952E1,3.0081472E0,7.2689133E0,3.426342E0,0E0,3.6773767E0,9.734664E0,0E0,1.579462E1,0E0,1.9389076E0,0E0,3.7646213E0,0E0,7.273207E-1,0E0,5.0352097E-1,9.548017E0,1.3532147E1,0E0,0E0,0E0,0E0,0E0,0E0,0E0,0E0,0E0,0E0,0E0,0E0,0E0,0E0,0E0,0E0,0E0,0E0],"parents":[2147483647,0,0,2,2,3,3,4,4,5,5,6,6,7,7,8,8,9,9,10,10,11,11,12,12,13,13,14,14,15,15,17,17,18,18,20,20,22,22,24,24,26,26,28,28,29,29,30,30],"right_children":[2,-1,4,6,8,10,12,14,16,18,20,22,24,26,28,30,-1,32,34,-1,36,-1,38,-1,40,-1,42,-1,44,46,48,-1,-1,-1,-1,-1,-1,-1,-1,-1,-1,-1,-1,-1,-1,-1,-1,-1,-1],"split_conditions":[1.5174211E0,-9.760382E-2,3.103312E-1,-2.4831852E-1,1.0738192E0,2.236068E0,-2.4551891E-1,-3.4823948E-1,2.0466397E0,-6.972274E-2,-9.523291E-1,-8.5071075E-1,2.525524E-1,-3.6729702E-1,-9.015199E-1,3.7663868E-1,-1.1862397E-1,1.0899143E0,-2.9180956E-1,6.899405E-2,-4.0063683E-2,-6.438004E-2,-1.1581119E-1,-1.8597601E-1,-2.2738624E-1,-8.978603E-2,-3.9309558E-1,2.650107E-3,1.2893221E0,2.341053E-1,-3.7225744E-1,4.8541214E-2,-1.7429223E-2,-1.0440643E-1,3.032579E-2,-2.3102704E-1,-1.3025734E-2,3.2006245E-2,9.777758E-2,-8.202128E-2,7.058232E-2,7.432339E-2,-1.1064214E-2,-3.2732663E-1,-1.1429439E-1,7.052769E-2,-1.4667824E-1,-2.3659436E-1,6.0651667E-2],"split_indices":[17,0,10,10,10,19,6,5,1,9,7,7,6,9,7,9,0,5,7,0,5,0,3,0,5,0,6,0,5,6,7,0,0,0,0,0,0,0,0,0,0,0,0,0,0,0,0,0,0],"split_type":[0,0,0,0,0,0,0,0,0,0,0,0,0,0,0,0,0,0,0,0,0,0,0,0,0,0,0,0,0,0,0,0,0,0,0,0,0,0,0,0,0,0,0,0,0,0,0,0,0],"sum_hessian":[2.153255E2,2.7831942E1,1.8749356E2,1.5358879E2,3.3904778E1,1.0716355E2,4.6425236E1,1.0315482E1,2.3589294E1,8.893891E1,1.8224636E1,3.297111E1,1.3454124E1,4.913171E0,5.4023113E0,2.2156404E1,1.4328902E0,6.4301605E1,2.4637308E1,4.229055E0,1.399558E1,1.5613105E0,3.1409801E1,2.0286057E0,1.1425519E1,1.1240591E0,3.7891119E0,1.0866671E0,4.3156443E0,1.7085732E1,5.070672E0,5.4871323E1,9.430285E0,6.4485517E0,1.8188757E1,4.1077914E0,9.887789E0,7.0019717E0,2.440783E1,1.0276232E0,1.0397896E1,2.7475083E0,1.0416034E0,2.5677722E0,1.7478724E0,1.5727941E1,1.3577908E0,1.2898568E0,3.7808154E0],"tree_param":{"num_deleted":"0","num_feature":"25","num_nodes":"49","size_leaf_vector":"1"}},{"base_weights":[3.113251E-2,-9.713307E-2,1.6370498E-1,1.1269263E-1,6.847514E-1,2.320078E-1,-2.0392604E-1,8.1386983E-1,-4.4400796E-2,7.526762E-2,4.2638174E-1,-8.82285E-1,2.4486426E-1,2.0761004E-1,9.171666E-2,5.3431597E-2,-4.8860967E-2,2.674808E-1,-6.803335E-1,5.559499E-1,-5.0403726E-1,-2.3826785E-1,-1.483833E0,4.284503E-1,-8.604872E-1,5.8207132E-2,-2.9783074E-2,5.9011247E-2,-1.3491934E-3,-1.2609039E-1,5.387151E-2,2.1887755E-2,7.0322946E-2,7.441205E-2,-1.641549E-1,-6.119266E-2,6.185006E-2,-8.491712E-3,-2.4237101E-1,6.844013E-2,-2.347079E-2,3.4001444E-2,-1.5128927E-1],"categories":[],"categories_nodes":[],"categories_segments":[],"categories_sizes":[],"default_left":[0,0,0,0,0,0,0,0,0,0,0,0,0,0,0,0,0,0,0,0,0,0,0,0,0,0,0,0,0,0,0,0,0,0,0,0,0,0,0,0,0,0,0],"id":47,"left_children":[1,-1,3,5,7,9,11,13,15,17,19,21,23,25,-1,-1,-1,27,29,31,33,35,37,39,41,-1,-1,-1,-1,-1,-1,-1,-1,-1,-1,-1,-1,-1,-1,-1,-1,-1,-1],"loss_changes":[2.9669346E1,0E0,5.158283E0,6.8700423E0,1.671238E0,3.9784799E0,1.5426942E1,